digraph Tree {
node [shape=box] ;
0 [label="max_area <= 11.5\ngini = 0.493\nsamples = 135\nvalue = [123, 97]"] ;
1 [label="mean_perimeter <= 0.33\ngini = 0.3503\nsamples = 96\nvalue = [123, 36]"] ;
0 -> 1 [labeldistance=2.5, labelangle=45, headlabel="True"] ;
2 [label="extent_variance <= 0.005\ngini = 0.3231\nsamples = 91\nvalue = [122, 31]"] ;
1 -> 2 ;
3 [label="longest_axis_largest_tumor <= 2.155\ngini = 0.4608\nsamples = 15\nvalue = [16, 9]"] ;
2 -> 3 ;
4 [label="mean_extent <= 0.5\ngini = 0.1975\nsamples = 12\nvalue = [16, 2]"] ;
3 -> 4 ;
5 [label="gini = 0.2188\nsamples = 11\nvalue = [14, 2]"] ;
4 -> 5 ;
6 [label="gini = 0.0\nsamples = 1\nvalue = [2, 0]"] ;
4 -> 6 ;
7 [label="gini = 0.0\nsamples = 3\nvalue = [0, 7]"] ;
3 -> 7 ;
8 [label="eccentricity_variance <= 0.185\ngini = 0.2847\nsamples = 76\nvalue = [106, 22]"] ;
2 -> 8 ;
9 [label="extent_skew <= -1.19\ngini = 0.2285\nsamples = 67\nvalue = [99, 15]"] ;
8 -> 9 ;
10 [label="max_perimeter <= 0.605\ngini = 0.2171\nsamples = 66\nvalue = [99, 14]"] ;
9 -> 10 ;
11 [label="area_skew <= 1.72\ngini = 0.2449\nsamples = 55\nvalue = [84, 14]"] ;
10 -> 11 ;
12 [label="mean_extent <= 0.945\ngini = 0.1906\nsamples = 43\nvalue = [67, 8]"] ;
11 -> 12 ;
13 [label="extent_kurt <= 3.995\ngini = 0.2887\nsamples = 22\nvalue = [33, 7]"] ;
12 -> 13 ;
14 [label="extent_skew <= -2.35\ngini = 0.1928\nsamples = 20\nvalue = [33, 4]"] ;
13 -> 14 ;
15 [label="longest_axis_largest_tumor <= 4.69\ngini = 0.5\nsamples = 2\nvalue = [2, 2]"] ;
14 -> 15 ;
16 [label="gini = 0.0\nsamples = 1\nvalue = [0, 2]"] ;
15 -> 16 ;
17 [label="gini = 0.0\nsamples = 1\nvalue = [2, 0]"] ;
15 -> 17 ;
18 [label="extent_kurt <= 1.19\ngini = 0.1139\nsamples = 18\nvalue = [31, 2]"] ;
14 -> 18 ;
19 [label="longest_axis_largest_tumor <= 6.385\ngini = 0.4444\nsamples = 5\nvalue = [4, 2]"] ;
18 -> 19 ;
20 [label="gini = 0.0\nsamples = 2\nvalue = [2, 0]"] ;
19 -> 20 ;
21 [label="eccentricity_skew <= 0.825\ngini = 0.5\nsamples = 3\nvalue = [2, 2]"] ;
19 -> 21 ;
22 [label="longest_axis_largest_tumor <= 8.865\ngini = 0.4444\nsamples = 2\nvalue = [1, 2]"] ;
21 -> 22 ;
23 [label="gini = 0.0\nsamples = 1\nvalue = [0, 2]"] ;
22 -> 23 ;
24 [label="gini = 0.0\nsamples = 1\nvalue = [1, 0]"] ;
22 -> 24 ;
25 [label="gini = 0.0\nsamples = 1\nvalue = [1, 0]"] ;
21 -> 25 ;
26 [label="gini = 0.0\nsamples = 13\nvalue = [27, 0]"] ;
18 -> 26 ;
27 [label="gini = 0.0\nsamples = 2\nvalue = [0, 3]"] ;
13 -> 27 ;
28 [label="extent_kurt <= 9.485\ngini = 0.0555\nsamples = 21\nvalue = [34, 1]"] ;
12 -> 28 ;
29 [label="gini = 0.0\nsamples = 15\nvalue = [25, 0]"] ;
28 -> 29 ;
30 [label="pixels_gt_90 <= 4.5\ngini = 0.18\nsamples = 6\nvalue = [9, 1]"] ;
28 -> 30 ;
31 [label="gini = 0.0\nsamples = 5\nvalue = [9, 0]"] ;
30 -> 31 ;
32 [label="gini = 0.0\nsamples = 1\nvalue = [0, 1]"] ;
30 -> 32 ;
33 [label="mean_area <= 1.105\ngini = 0.3856\nsamples = 12\nvalue = [17, 6]"] ;
11 -> 33 ;
34 [label="longest_axis_largest_tumor <= 12.705\ngini = 0.2076\nsamples = 9\nvalue = [15, 2]"] ;
33 -> 34 ;
35 [label="gini = 0.0\nsamples = 7\nvalue = [12, 0]"] ;
34 -> 35 ;
36 [label="avg_prediction <= 233.425\ngini = 0.48\nsamples = 2\nvalue = [3, 2]"] ;
34 -> 36 ;
37 [label="gini = 0.0\nsamples = 1\nvalue = [3, 0]"] ;
36 -> 37 ;
38 [label="gini = 0.0\nsamples = 1\nvalue = [0, 2]"] ;
36 -> 38 ;
39 [label="mean_extent <= 0.93\ngini = 0.4444\nsamples = 3\nvalue = [2, 4]"] ;
33 -> 39 ;
40 [label="area_kurt <= 2.17\ngini = 0.4444\nsamples = 2\nvalue = [2, 1]"] ;
39 -> 40 ;
41 [label="gini = 0.0\nsamples = 1\nvalue = [0, 1]"] ;
40 -> 41 ;
42 [label="gini = 0.0\nsamples = 1\nvalue = [2, 0]"] ;
40 -> 42 ;
43 [label="gini = 0.0\nsamples = 1\nvalue = [0, 3]"] ;
39 -> 43 ;
44 [label="gini = 0.0\nsamples = 11\nvalue = [15, 0]"] ;
10 -> 44 ;
45 [label="gini = 0.0\nsamples = 1\nvalue = [0, 1]"] ;
9 -> 45 ;
46 [label="eccentricity_skew <= 0.205\ngini = 0.5\nsamples = 9\nvalue = [7, 7]"] ;
8 -> 46 ;
47 [label="gini = 0.0\nsamples = 2\nvalue = [0, 2]"] ;
46 -> 47 ;
48 [label="mean_extent <= 0.945\ngini = 0.4861\nsamples = 7\nvalue = [7, 5]"] ;
46 -> 48 ;
49 [label="gini = 0.0\nsamples = 4\nvalue = [6, 0]"] ;
48 -> 49 ;
50 [label="extent_skew <= -2.83\ngini = 0.2778\nsamples = 3\nvalue = [1, 5]"] ;
48 -> 50 ;
51 [label="mean_area <= 1.375\ngini = 0.5\nsamples = 2\nvalue = [1, 1]"] ;
50 -> 51 ;
52 [label="gini = 0.0\nsamples = 1\nvalue = [1, 0]"] ;
51 -> 52 ;
53 [label="gini = 0.0\nsamples = 1\nvalue = [0, 1]"] ;
51 -> 53 ;
54 [label="gini = 0.0\nsamples = 1\nvalue = [0, 4]"] ;
50 -> 54 ;
55 [label="solidity_kurt <= 5.625\ngini = 0.2778\nsamples = 5\nvalue = [1, 5]"] ;
1 -> 55 ;
56 [label="gini = 0.0\nsamples = 4\nvalue = [0, 5]"] ;
55 -> 56 ;
57 [label="gini = 0.0\nsamples = 1\nvalue = [1, 0]"] ;
55 -> 57 ;
58 [label="gini = 0.0\nsamples = 39\nvalue = [0, 61]"] ;
0 -> 58 [labeldistance=2.5, labelangle=-45, headlabel="False"] ;
}