digraph Tree {
node [shape=box] ;
0 [label="max_perimeter <= 7.83\ngini = 0.4985\nsamples = 129\nvalue = [116, 104]"] ;
1 [label="avg_prediction <= 234.185\ngini = 0.3448\nsamples = 87\nvalue = [116, 33]"] ;
0 -> 1 [labeldistance=2.5, labelangle=45, headlabel="True"] ;
2 [label="solidity_variance <= 0.005\ngini = 0.1748\nsamples = 56\nvalue = [84, 9]"] ;
1 -> 2 ;
3 [label="mean_extent <= 0.935\ngini = 0.142\nsamples = 55\nvalue = [84, 7]"] ;
2 -> 3 ;
4 [label="largest_tumor_area <= 9.5\ngini = 0.2061\nsamples = 35\nvalue = [53, 7]"] ;
3 -> 4 ;
5 [label="max_perimeter <= 1.705\ngini = 0.3133\nsamples = 20\nvalue = [29, 7]"] ;
4 -> 5 ;
6 [label="extent_skew <= -2.235\ngini = 0.2509\nsamples = 19\nvalue = [29, 5]"] ;
5 -> 6 ;
7 [label="gini = 0.0\nsamples = 1\nvalue = [0, 2]"] ;
6 -> 7 ;
8 [label="pixels_gt_90 <= 9.5\ngini = 0.1699\nsamples = 18\nvalue = [29, 3]"] ;
6 -> 8 ;
9 [label="perimeter_kurt <= -1.5\ngini = 0.1207\nsamples = 17\nvalue = [29, 2]"] ;
8 -> 9 ;
10 [label="gini = 0.0\nsamples = 4\nvalue = [6, 0]"] ;
9 -> 10 ;
11 [label="gini = 0.1472\nsamples = 13\nvalue = [23, 2]"] ;
9 -> 11 ;
12 [label="gini = 0.0\nsamples = 1\nvalue = [0, 1]"] ;
8 -> 12 ;
13 [label="gini = 0.0\nsamples = 1\nvalue = [0, 2]"] ;
5 -> 13 ;
14 [label="gini = 0.0\nsamples = 15\nvalue = [24, 0]"] ;
4 -> 14 ;
15 [label="gini = 0.0\nsamples = 20\nvalue = [31, 0]"] ;
3 -> 15 ;
16 [label="gini = 0.0\nsamples = 1\nvalue = [0, 2]"] ;
2 -> 16 ;
17 [label="max_area <= 1.5\ngini = 0.4898\nsamples = 31\nvalue = [32, 24]"] ;
1 -> 17 ;
18 [label="pixels_gt_90 <= 5.5\ngini = 0.3673\nsamples = 19\nvalue = [25, 8]"] ;
17 -> 18 ;
19 [label="extent_variance <= 0.015\ngini = 0.4352\nsamples = 13\nvalue = [17, 8]"] ;
18 -> 19 ;
20 [label="avg_prediction <= 241.25\ngini = 0.48\nsamples = 4\nvalue = [4, 6]"] ;
19 -> 20 ;
21 [label="extent_skew <= -3.915\ngini = 0.5\nsamples = 3\nvalue = [4, 4]"] ;
20 -> 21 ;
22 [label="gini = 0.0\nsamples = 2\nvalue = [4, 0]"] ;
21 -> 22 ;
23 [label="gini = 0.0\nsamples = 1\nvalue = [0, 4]"] ;
21 -> 23 ;
24 [label="gini = 0.0\nsamples = 1\nvalue = [0, 2]"] ;
20 -> 24 ;
25 [label="largest_tumor_area <= 3.5\ngini = 0.2311\nsamples = 9\nvalue = [13, 2]"] ;
19 -> 25 ;
26 [label="longest_axis_largest_tumor <= 2.57\ngini = 0.5\nsamples = 3\nvalue = [2, 2]"] ;
25 -> 26 ;
27 [label="gini = 0.0\nsamples = 1\nvalue = [0, 2]"] ;
26 -> 27 ;
28 [label="gini = 0.0\nsamples = 2\nvalue = [2, 0]"] ;
26 -> 28 ;
29 [label="gini = 0.0\nsamples = 6\nvalue = [11, 0]"] ;
25 -> 29 ;
30 [label="gini = 0.0\nsamples = 6\nvalue = [8, 0]"] ;
18 -> 30 ;
31 [label="largest_tumor_area <= 29.5\ngini = 0.4234\nsamples = 12\nvalue = [7, 16]"] ;
17 -> 31 ;
32 [label="mean_eccentricity <= 0.3\ngini = 0.1107\nsamples = 9\nvalue = [1, 16]"] ;
31 -> 32 ;
33 [label="gini = 0.0\nsamples = 7\nvalue = [0, 14]"] ;
32 -> 33 ;
34 [label="pixels_gt_90 <= 8.5\ngini = 0.4444\nsamples = 2\nvalue = [1, 2]"] ;
32 -> 34 ;
35 [label="gini = 0.0\nsamples = 1\nvalue = [0, 2]"] ;
34 -> 35 ;
36 [label="gini = 0.0\nsamples = 1\nvalue = [1, 0]"] ;
34 -> 36 ;
37 [label="gini = 0.0\nsamples = 3\nvalue = [6, 0]"] ;
31 -> 37 ;
38 [label="gini = 0.0\nsamples = 42\nvalue = [0, 71]"] ;
0 -> 38 [labeldistance=2.5, labelangle=-45, headlabel="False"] ;
}