digraph Tree {
node [shape=box] ;
0 [label="max_perimeter <= 9.725\ngini = 0.4818\nsamples = 137\nvalue = [131, 89]"] ;
1 [label="avg_prediction <= 234.875\ngini = 0.2476\nsamples = 100\nvalue = [130, 22]"] ;
0 -> 1 [labeldistance=2.5, labelangle=45, headlabel="True"] ;
2 [label="extent_variance <= 0.055\ngini = 0.1665\nsamples = 78\nvalue = [109, 11]"] ;
1 -> 2 ;
3 [label="mean_perimeter <= 0.295\ngini = 0.1539\nsamples = 77\nvalue = [109, 10]"] ;
2 -> 3 ;
4 [label="mean_eccentricity <= 0.07\ngini = 0.1153\nsamples = 73\nvalue = [107, 7]"] ;
3 -> 4 ;
5 [label="mean_extent <= 0.945\ngini = 0.1495\nsamples = 56\nvalue = [79, 7]"] ;
4 -> 5 ;
6 [label="eccentricity_variance <= 0.055\ngini = 0.2061\nsamples = 39\nvalue = [53, 7]"] ;
5 -> 6 ;
7 [label="avg_prediction <= 233.07\ngini = 0.1884\nsamples = 36\nvalue = [51, 6]"] ;
6 -> 7 ;
8 [label="extent_skew <= -2.475\ngini = 0.255\nsamples = 27\nvalue = [34, 6]"] ;
7 -> 8 ;
9 [label="gini = 0.0\nsamples = 1\nvalue = [0, 2]"] ;
8 -> 9 ;
10 [label="extent_kurt <= 3.775\ngini = 0.1884\nsamples = 26\nvalue = [34, 4]"] ;
8 -> 10 ;
11 [label="max_solidity <= 0.5\ngini = 0.1139\nsamples = 23\nvalue = [31, 2]"] ;
10 -> 11 ;
12 [label="gini = 0.1588\nsamples = 15\nvalue = [21, 2]"] ;
11 -> 12 ;
13 [label="gini = 0.0\nsamples = 8\nvalue = [10, 0]"] ;
11 -> 13 ;
14 [label="extent_kurt <= 3.895\ngini = 0.48\nsamples = 3\nvalue = [3, 2]"] ;
10 -> 14 ;
15 [label="gini = 0.0\nsamples = 1\nvalue = [0, 2]"] ;
14 -> 15 ;
16 [label="gini = 0.0\nsamples = 2\nvalue = [3, 0]"] ;
14 -> 16 ;
17 [label="gini = 0.0\nsamples = 9\nvalue = [17, 0]"] ;
7 -> 17 ;
18 [label="mean_extent <= 0.905\ngini = 0.4444\nsamples = 3\nvalue = [2, 1]"] ;
6 -> 18 ;
19 [label="gini = 0.0\nsamples = 1\nvalue = [0, 1]"] ;
18 -> 19 ;
20 [label="gini = 0.0\nsamples = 2\nvalue = [2, 0]"] ;
18 -> 20 ;
21 [label="gini = 0.0\nsamples = 17\nvalue = [26, 0]"] ;
5 -> 21 ;
22 [label="gini = 0.0\nsamples = 17\nvalue = [28, 0]"] ;
4 -> 22 ;
23 [label="region_count <= 12.5\ngini = 0.48\nsamples = 4\nvalue = [2, 3]"] ;
3 -> 23 ;
24 [label="gini = 0.0\nsamples = 3\nvalue = [0, 3]"] ;
23 -> 24 ;
25 [label="gini = 0.0\nsamples = 1\nvalue = [2, 0]"] ;
23 -> 25 ;
26 [label="gini = 0.0\nsamples = 1\nvalue = [0, 1]"] ;
2 -> 26 ;
27 [label="area_variance <= 0.215\ngini = 0.4512\nsamples = 22\nvalue = [21, 11]"] ;
1 -> 27 ;
28 [label="area_kurt <= -1.835\ngini = 0.4965\nsamples = 17\nvalue = [13, 11]"] ;
27 -> 28 ;
29 [label="mean_extent <= 0.985\ngini = 0.4717\nsamples = 14\nvalue = [13, 8]"] ;
28 -> 29 ;
30 [label="region_count <= 4.5\ngini = 0.2604\nsamples = 10\nvalue = [11, 2]"] ;
29 -> 30 ;
31 [label="pixels_gt_90 <= 2.5\ngini = 0.1653\nsamples = 8\nvalue = [10, 1]"] ;
30 -> 31 ;
32 [label="extent_variance <= 0.015\ngini = 0.18\nsamples = 7\nvalue = [9, 1]"] ;
31 -> 32 ;
33 [label="extent_skew <= -3.915\ngini = 0.4444\nsamples = 3\nvalue = [2, 1]"] ;
32 -> 33 ;
34 [label="gini = 0.0\nsamples = 2\nvalue = [2, 0]"] ;
33 -> 34 ;
35 [label="gini = 0.0\nsamples = 1\nvalue = [0, 1]"] ;
33 -> 35 ;
36 [label="gini = 0.0\nsamples = 4\nvalue = [7, 0]"] ;
32 -> 36 ;
37 [label="gini = 0.0\nsamples = 1\nvalue = [1, 0]"] ;
31 -> 37 ;
38 [label="extent_variance <= 0.025\ngini = 0.5\nsamples = 2\nvalue = [1, 1]"] ;
30 -> 38 ;
39 [label="gini = 0.0\nsamples = 1\nvalue = [1, 0]"] ;
38 -> 39 ;
40 [label="gini = 0.0\nsamples = 1\nvalue = [0, 1]"] ;
38 -> 40 ;
41 [label="region_count <= 1.5\ngini = 0.375\nsamples = 4\nvalue = [2, 6]"] ;
29 -> 41 ;
42 [label="gini = 0.0\nsamples = 1\nvalue = [0, 2]"] ;
41 -> 42 ;
43 [label="extent_skew <= -1.875\ngini = 0.4444\nsamples = 3\nvalue = [2, 4]"] ;
41 -> 43 ;
44 [label="gini = 0.0\nsamples = 1\nvalue = [0, 1]"] ;
43 -> 44 ;
45 [label="avg_prediction <= 236.75\ngini = 0.48\nsamples = 2\nvalue = [2, 3]"] ;
43 -> 45 ;
46 [label="gini = 0.0\nsamples = 1\nvalue = [0, 3]"] ;
45 -> 46 ;
47 [label="gini = 0.0\nsamples = 1\nvalue = [2, 0]"] ;
45 -> 47 ;
48 [label="gini = 0.0\nsamples = 3\nvalue = [0, 3]"] ;
28 -> 48 ;
49 [label="gini = 0.0\nsamples = 5\nvalue = [8, 0]"] ;
27 -> 49 ;
50 [label="perimeter_variance <= 74.135\ngini = 0.029\nsamples = 37\nvalue = [1, 67]"] ;
0 -> 50 [labeldistance=2.5, labelangle=-45, headlabel="False"] ;
51 [label="perimeter_kurt <= 21.275\ngini = 0.18\nsamples = 6\nvalue = [1, 9]"] ;
50 -> 51 ;
52 [label="gini = 0.0\nsamples = 5\nvalue = [0, 9]"] ;
51 -> 52 ;
53 [label="gini = 0.0\nsamples = 1\nvalue = [1, 0]"] ;
51 -> 53 ;
54 [label="gini = 0.0\nsamples = 31\nvalue = [0, 58]"] ;
50 -> 54 ;
}