digraph Tree {
node [shape=box] ;
0 [label="max_area <= 12.0\ngini = 0.4721\nsamples = 144\nvalue = [136, 84]"] ;
1 [label="extent_variance <= 0.045\ngini = 0.2873\nsamples = 109\nvalue = [133, 28]"] ;
0 -> 1 [labeldistance=2.5, labelangle=45, headlabel="True"] ;
2 [label="avg_prediction <= 234.235\ngini = 0.3052\nsamples = 100\nvalue = [121, 28]"] ;
1 -> 2 ;
3 [label="area_kurt <= 4.64\ngini = 0.2118\nsamples = 69\nvalue = [95, 13]"] ;
2 -> 3 ;
4 [label="area_kurt <= 2.49\ngini = 0.2383\nsamples = 60\nvalue = [81, 13]"] ;
3 -> 4 ;
5 [label="area_variance <= 0.145\ngini = 0.1975\nsamples = 57\nvalue = [80, 10]"] ;
4 -> 5 ;
6 [label="pixels_gt_90 <= 10.0\ngini = 0.2055\nsamples = 54\nvalue = [76, 10]"] ;
5 -> 6 ;
7 [label="extent_kurt <= 0.255\ngini = 0.142\nsamples = 47\nvalue = [72, 6]"] ;
6 -> 7 ;
8 [label="gini = 0.2392\nsamples = 20\nvalue = [31, 5]"] ;
7 -> 8 ;
9 [label="mean_extent <= 0.945\ngini = 0.0465\nsamples = 27\nvalue = [41, 1]"] ;
7 -> 9 ;
10 [label="avg_prediction <= 230.165\ngini = 0.1049\nsamples = 11\nvalue = [17, 1]"] ;
9 -> 10 ;
11 [label="gini = 0.0\nsamples = 1\nvalue = [0, 1]"] ;
10 -> 11 ;
12 [label="gini = 0.0\nsamples = 10\nvalue = [17, 0]"] ;
10 -> 12 ;
13 [label="gini = 0.0\nsamples = 16\nvalue = [24, 0]"] ;
9 -> 13 ;
14 [label="largest_tumor_area <= 9.5\ngini = 0.5\nsamples = 7\nvalue = [4, 4]"] ;
6 -> 14 ;
15 [label="gini = 0.0\nsamples = 3\nvalue = [0, 4]"] ;
14 -> 15 ;
16 [label="gini = 0.0\nsamples = 4\nvalue = [4, 0]"] ;
14 -> 16 ;
17 [label="gini = 0.0\nsamples = 3\nvalue = [4, 0]"] ;
5 -> 17 ;
18 [label="largest_tumor_area <= 7.0\ngini = 0.375\nsamples = 3\nvalue = [1, 3]"] ;
4 -> 18 ;
19 [label="gini = 0.0\nsamples = 1\nvalue = [1, 0]"] ;
18 -> 19 ;
20 [label="gini = 0.0\nsamples = 2\nvalue = [0, 3]"] ;
18 -> 20 ;
21 [label="gini = 0.0\nsamples = 9\nvalue = [14, 0]"] ;
3 -> 21 ;
22 [label="perimeter_variance <= 1.12\ngini = 0.464\nsamples = 31\nvalue = [26, 15]"] ;
2 -> 22 ;
23 [label="longest_axis_largest_tumor <= 4.575\ngini = 0.4444\nsamples = 29\nvalue = [26, 13]"] ;
22 -> 23 ;
24 [label="area_variance <= 0.08\ngini = 0.4898\nsamples = 10\nvalue = [6, 8]"] ;
23 -> 24 ;
25 [label="extent_kurt <= 7.34\ngini = 0.5\nsamples = 9\nvalue = [6, 6]"] ;
24 -> 25 ;
26 [label="gini = 0.0\nsamples = 4\nvalue = [4, 0]"] ;
25 -> 26 ;
27 [label="avg_prediction <= 237.0\ngini = 0.375\nsamples = 5\nvalue = [2, 6]"] ;
25 -> 27 ;
28 [label="gini = 0.0\nsamples = 3\nvalue = [0, 5]"] ;
27 -> 28 ;
29 [label="extent_kurt <= 14.505\ngini = 0.4444\nsamples = 2\nvalue = [2, 1]"] ;
27 -> 29 ;
30 [label="gini = 0.0\nsamples = 1\nvalue = [0, 1]"] ;
29 -> 30 ;
31 [label="gini = 0.0\nsamples = 1\nvalue = [2, 0]"] ;
29 -> 31 ;
32 [label="gini = 0.0\nsamples = 1\nvalue = [0, 2]"] ;
24 -> 32 ;
33 [label="avg_prediction <= 234.31\ngini = 0.32\nsamples = 19\nvalue = [20, 5]"] ;
23 -> 33 ;
34 [label="gini = 0.0\nsamples = 1\nvalue = [0, 1]"] ;
33 -> 34 ;
35 [label="area_kurt <= 11.015\ngini = 0.2778\nsamples = 18\nvalue = [20, 4]"] ;
33 -> 35 ;
36 [label="extent_skew <= -2.33\ngini = 0.2355\nsamples = 16\nvalue = [19, 3]"] ;
35 -> 36 ;
37 [label="longest_axis_largest_tumor <= 5.66\ngini = 0.375\nsamples = 9\nvalue = [9, 3]"] ;
36 -> 37 ;
38 [label="gini = 0.0\nsamples = 4\nvalue = [7, 0]"] ;
37 -> 38 ;
39 [label="longest_axis_largest_tumor <= 7.23\ngini = 0.48\nsamples = 5\nvalue = [2, 3]"] ;
37 -> 39 ;
40 [label="gini = 0.0\nsamples = 2\nvalue = [0, 2]"] ;
39 -> 40 ;
41 [label="extent_skew <= -2.76\ngini = 0.4444\nsamples = 3\nvalue = [2, 1]"] ;
39 -> 41 ;
42 [label="gini = 0.0\nsamples = 2\nvalue = [2, 0]"] ;
41 -> 42 ;
43 [label="gini = 0.0\nsamples = 1\nvalue = [0, 1]"] ;
41 -> 43 ;
44 [label="gini = 0.0\nsamples = 7\nvalue = [10, 0]"] ;
36 -> 44 ;
45 [label="mean_extent <= 0.915\ngini = 0.5\nsamples = 2\nvalue = [1, 1]"] ;
35 -> 45 ;
46 [label="gini = 0.0\nsamples = 1\nvalue = [0, 1]"] ;
45 -> 46 ;
47 [label="gini = 0.0\nsamples = 1\nvalue = [1, 0]"] ;
45 -> 47 ;
48 [label="gini = 0.0\nsamples = 2\nvalue = [0, 2]"] ;
22 -> 48 ;
49 [label="gini = 0.0\nsamples = 9\nvalue = [12, 0]"] ;
1 -> 49 ;
50 [label="area_skew <= 4.515\ngini = 0.0965\nsamples = 35\nvalue = [3, 56]"] ;
0 -> 50 [labeldistance=2.5, labelangle=-45, headlabel="False"] ;
51 [label="gini = 0.0\nsamples = 23\nvalue = [0, 39]"] ;
50 -> 51 ;
52 [label="area_skew <= 4.885\ngini = 0.255\nsamples = 12\nvalue = [3, 17]"] ;
50 -> 52 ;
53 [label="gini = 0.0\nsamples = 1\nvalue = [3, 0]"] ;
52 -> 53 ;
54 [label="gini = 0.0\nsamples = 11\nvalue = [0, 17]"] ;
52 -> 54 ;
}