digraph Tree {
node [shape=box] ;
0 [label="perimeter_variance <= 1.12\ngini = 0.4403\nsamples = 132\nvalue = [148, 72]"] ;
1 [label="extent_variance <= 0.055\ngini = 0.2233\nsamples = 96\nvalue = [143, 21]"] ;
0 -> 1 [labeldistance=2.5, labelangle=45, headlabel="True"] ;
2 [label="extent_kurt <= 9.485\ngini = 0.2093\nsamples = 94\nvalue = [141, 19]"] ;
1 -> 2 ;
3 [label="largest_tumor_area <= 7.5\ngini = 0.1509\nsamples = 85\nvalue = [134, 12]"] ;
2 -> 3 ;
4 [label="extent_skew <= -2.47\ngini = 0.0555\nsamples = 41\nvalue = [68, 2]"] ;
3 -> 4 ;
5 [label="gini = 0.0\nsamples = 16\nvalue = [24, 0]"] ;
4 -> 5 ;
6 [label="largest_tumor_area <= 3.5\ngini = 0.0832\nsamples = 25\nvalue = [44, 2]"] ;
4 -> 6 ;
7 [label="mean_area <= 0.5\ngini = 0.1207\nsamples = 18\nvalue = [29, 2]"] ;
6 -> 7 ;
8 [label="gini = 0.0689\nsamples = 16\nvalue = [27, 1]"] ;
7 -> 8 ;
9 [label="extent_variance <= 0.01\ngini = 0.4444\nsamples = 2\nvalue = [2, 1]"] ;
7 -> 9 ;
10 [label="gini = 0.0\nsamples = 1\nvalue = [2, 0]"] ;
9 -> 10 ;
11 [label="gini = 0.0\nsamples = 1\nvalue = [0, 1]"] ;
9 -> 11 ;
12 [label="gini = 0.0\nsamples = 7\nvalue = [15, 0]"] ;
6 -> 12 ;
13 [label="perimeter_skew <= 1.595\ngini = 0.2285\nsamples = 44\nvalue = [66, 10]"] ;
3 -> 13 ;
14 [label="mean_eccentricity <= 0.105\ngini = 0.2741\nsamples = 36\nvalue = [51, 10]"] ;
13 -> 14 ;
15 [label="extent_skew <= -2.39\ngini = 0.2076\nsamples = 28\nvalue = [45, 6]"] ;
14 -> 15 ;
16 [label="pixels_gt_90 <= 5.5\ngini = 0.3967\nsamples = 7\nvalue = [8, 3]"] ;
15 -> 16 ;
17 [label="gini = 0.0\nsamples = 1\nvalue = [0, 2]"] ;
16 -> 17 ;
18 [label="mean_eccentricity <= 0.025\ngini = 0.1975\nsamples = 6\nvalue = [8, 1]"] ;
16 -> 18 ;
19 [label="longest_axis_largest_tumor <= 7.275\ngini = 0.2188\nsamples = 5\nvalue = [7, 1]"] ;
18 -> 19 ;
20 [label="gini = 0.0\nsamples = 3\nvalue = [5, 0]"] ;
19 -> 20 ;
21 [label="longest_axis_largest_tumor <= 8.245\ngini = 0.4444\nsamples = 2\nvalue = [2, 1]"] ;
19 -> 21 ;
22 [label="gini = 0.0\nsamples = 1\nvalue = [0, 1]"] ;
21 -> 22 ;
23 [label="gini = 0.0\nsamples = 1\nvalue = [2, 0]"] ;
21 -> 23 ;
24 [label="gini = 0.0\nsamples = 1\nvalue = [1, 0]"] ;
18 -> 24 ;
25 [label="area_skew <= 3.65\ngini = 0.1388\nsamples = 21\nvalue = [37, 3]"] ;
15 -> 25 ;
26 [label="pixels_gt_90 <= 10.5\ngini = 0.0624\nsamples = 17\nvalue = [30, 1]"] ;
25 -> 26 ;
27 [label="gini = 0.0\nsamples = 11\nvalue = [20, 0]"] ;
26 -> 27 ;
28 [label="eccentricity_skew <= 1.475\ngini = 0.1653\nsamples = 6\nvalue = [10, 1]"] ;
26 -> 28 ;
29 [label="avg_prediction <= 232.945\ngini = 0.32\nsamples = 3\nvalue = [4, 1]"] ;
28 -> 29 ;
30 [label="gini = 0.0\nsamples = 1\nvalue = [0, 1]"] ;
29 -> 30 ;
31 [label="gini = 0.0\nsamples = 2\nvalue = [4, 0]"] ;
29 -> 31 ;
32 [label="gini = 0.0\nsamples = 3\nvalue = [6, 0]"] ;
28 -> 32 ;
33 [label="eccentricity_skew <= 3.815\ngini = 0.3457\nsamples = 4\nvalue = [7, 2]"] ;
25 -> 33 ;
34 [label="gini = 0.0\nsamples = 1\nvalue = [0, 2]"] ;
33 -> 34 ;
35 [label="gini = 0.0\nsamples = 3\nvalue = [7, 0]"] ;
33 -> 35 ;
36 [label="extent_kurt <= 1.77\ngini = 0.48\nsamples = 8\nvalue = [6, 4]"] ;
14 -> 36 ;
37 [label="gini = 0.0\nsamples = 3\nvalue = [3, 0]"] ;
36 -> 37 ;
38 [label="region_count <= 7.5\ngini = 0.4898\nsamples = 5\nvalue = [3, 4]"] ;
36 -> 38 ;
39 [label="gini = 0.0\nsamples = 2\nvalue = [3, 0]"] ;
38 -> 39 ;
40 [label="gini = 0.0\nsamples = 3\nvalue = [0, 4]"] ;
38 -> 40 ;
41 [label="gini = 0.0\nsamples = 8\nvalue = [15, 0]"] ;
13 -> 41 ;
42 [label="region_count <= 1.5\ngini = 0.5\nsamples = 9\nvalue = [7, 7]"] ;
2 -> 42 ;
43 [label="mean_extent <= 0.985\ngini = 0.3457\nsamples = 7\nvalue = [7, 2]"] ;
42 -> 43 ;
44 [label="extent_kurt <= 11.94\ngini = 0.2188\nsamples = 6\nvalue = [7, 1]"] ;
43 -> 44 ;
45 [label="extent_variance <= 0.015\ngini = 0.5\nsamples = 2\nvalue = [1, 1]"] ;
44 -> 45 ;
46 [label="gini = 0.0\nsamples = 1\nvalue = [0, 1]"] ;
45 -> 46 ;
47 [label="gini = 0.0\nsamples = 1\nvalue = [1, 0]"] ;
45 -> 47 ;
48 [label="gini = 0.0\nsamples = 4\nvalue = [6, 0]"] ;
44 -> 48 ;
49 [label="gini = 0.0\nsamples = 1\nvalue = [0, 1]"] ;
43 -> 49 ;
50 [label="gini = 0.0\nsamples = 2\nvalue = [0, 5]"] ;
42 -> 50 ;
51 [label="longest_axis_largest_tumor <= 11.7\ngini = 0.5\nsamples = 2\nvalue = [2, 2]"] ;
1 -> 51 ;
52 [label="gini = 0.0\nsamples = 1\nvalue = [0, 2]"] ;
51 -> 52 ;
53 [label="gini = 0.0\nsamples = 1\nvalue = [2, 0]"] ;
51 -> 53 ;
54 [label="eccentricity_kurt <= 2.18\ngini = 0.1626\nsamples = 36\nvalue = [5, 51]"] ;
0 -> 54 [labeldistance=2.5, labelangle=-45, headlabel="False"] ;
55 [label="perimeter_skew <= 4.435\ngini = 0.0392\nsamples = 32\nvalue = [1, 49]"] ;
54 -> 55 ;
56 [label="gini = 0.0\nsamples = 23\nvalue = [0, 38]"] ;
55 -> 56 ;
57 [label="area_variance <= 284.81\ngini = 0.1528\nsamples = 9\nvalue = [1, 11]"] ;
55 -> 57 ;
58 [label="gini = 0.0\nsamples = 1\nvalue = [1, 0]"] ;
57 -> 58 ;
59 [label="gini = 0.0\nsamples = 8\nvalue = [0, 11]"] ;
57 -> 59 ;
60 [label="mean_area <= 1.885\ngini = 0.4444\nsamples = 4\nvalue = [4, 2]"] ;
54 -> 60 ;
61 [label="gini = 0.0\nsamples = 2\nvalue = [4, 0]"] ;
60 -> 61 ;
62 [label="gini = 0.0\nsamples = 2\nvalue = [0, 2]"] ;
60 -> 62 ;
}