digraph Tree {
node [shape=box] ;
0 [label="mean_area <= 1.455\ngini = 0.4835\nsamples = 145\nvalue = [130, 90]"] ;
1 [label="mean_area <= 1.15\ngini = 0.2568\nsamples = 99\nvalue = [129, 23]"] ;
0 -> 1 [labeldistance=2.5, labelangle=45, headlabel="True"] ;
2 [label="mean_extent <= 0.965\ngini = 0.1827\nsamples = 77\nvalue = [106, 12]"] ;
1 -> 2 ;
3 [label="longest_axis_largest_tumor <= 2.57\ngini = 0.0733\nsamples = 68\nvalue = [101, 4]"] ;
2 -> 3 ;
4 [label="max_area <= 0.5\ngini = 0.1609\nsamples = 21\nvalue = [31, 3]"] ;
3 -> 4 ;
5 [label="gini = 0.1207\nsamples = 18\nvalue = [29, 2]"] ;
4 -> 5 ;
6 [label="avg_prediction <= 231.5\ngini = 0.4444\nsamples = 3\nvalue = [2, 1]"] ;
4 -> 6 ;
7 [label="gini = 0.0\nsamples = 1\nvalue = [0, 1]"] ;
6 -> 7 ;
8 [label="gini = 0.0\nsamples = 2\nvalue = [2, 0]"] ;
6 -> 8 ;
9 [label="largest_tumor_area <= 10.5\ngini = 0.0278\nsamples = 47\nvalue = [70, 1]"] ;
3 -> 9 ;
10 [label="gini = 0.0\nsamples = 33\nvalue = [49, 0]"] ;
9 -> 10 ;
11 [label="mean_extent <= 0.935\ngini = 0.0868\nsamples = 14\nvalue = [21, 1]"] ;
9 -> 11 ;
12 [label="gini = 0.0\nsamples = 10\nvalue = [15, 0]"] ;
11 -> 12 ;
13 [label="longest_axis_largest_tumor <= 7.06\ngini = 0.2449\nsamples = 4\nvalue = [6, 1]"] ;
11 -> 13 ;
14 [label="largest_tumor_area <= 11.5\ngini = 0.5\nsamples = 2\nvalue = [1, 1]"] ;
13 -> 14 ;
15 [label="gini = 0.0\nsamples = 1\nvalue = [0, 1]"] ;
14 -> 15 ;
16 [label="gini = 0.0\nsamples = 1\nvalue = [1, 0]"] ;
14 -> 16 ;
17 [label="gini = 0.0\nsamples = 2\nvalue = [5, 0]"] ;
13 -> 17 ;
18 [label="extent_kurt <= 16.955\ngini = 0.4734\nsamples = 9\nvalue = [5, 8]"] ;
2 -> 18 ;
19 [label="longest_axis_largest_tumor <= 2.155\ngini = 0.32\nsamples = 6\nvalue = [2, 8]"] ;
18 -> 19 ;
20 [label="gini = 0.0\nsamples = 1\nvalue = [1, 0]"] ;
19 -> 20 ;
21 [label="region_count <= 1.5\ngini = 0.1975\nsamples = 5\nvalue = [1, 8]"] ;
19 -> 21 ;
22 [label="gini = 0.0\nsamples = 2\nvalue = [0, 4]"] ;
21 -> 22 ;
23 [label="largest_tumor_area <= 4.0\ngini = 0.32\nsamples = 3\nvalue = [1, 4]"] ;
21 -> 23 ;
24 [label="gini = 0.0\nsamples = 2\nvalue = [0, 4]"] ;
23 -> 24 ;
25 [label="gini = 0.0\nsamples = 1\nvalue = [1, 0]"] ;
23 -> 25 ;
26 [label="gini = 0.0\nsamples = 3\nvalue = [3, 0]"] ;
18 -> 26 ;
27 [label="largest_tumor_area <= 18.5\ngini = 0.4377\nsamples = 22\nvalue = [23, 11]"] ;
1 -> 27 ;
28 [label="longest_axis_largest_tumor <= 3.73\ngini = 0.2778\nsamples = 8\nvalue = [2, 10]"] ;
27 -> 28 ;
29 [label="gini = 0.0\nsamples = 1\nvalue = [1, 0]"] ;
28 -> 29 ;
30 [label="extent_skew <= -2.37\ngini = 0.1653\nsamples = 7\nvalue = [1, 10]"] ;
28 -> 30 ;
31 [label="gini = 0.0\nsamples = 3\nvalue = [0, 6]"] ;
30 -> 31 ;
32 [label="area_variance <= 0.31\ngini = 0.32\nsamples = 4\nvalue = [1, 4]"] ;
30 -> 32 ;
33 [label="area_skew <= 0.955\ngini = 0.5\nsamples = 2\nvalue = [1, 1]"] ;
32 -> 33 ;
34 [label="gini = 0.0\nsamples = 1\nvalue = [1, 0]"] ;
33 -> 34 ;
35 [label="gini = 0.0\nsamples = 1\nvalue = [0, 1]"] ;
33 -> 35 ;
36 [label="gini = 0.0\nsamples = 2\nvalue = [0, 3]"] ;
32 -> 36 ;
37 [label="largest_tumor_area <= 22.5\ngini = 0.0868\nsamples = 14\nvalue = [21, 1]"] ;
27 -> 37 ;
38 [label="perimeter_variance <= 1.19\ngini = 0.375\nsamples = 3\nvalue = [3, 1]"] ;
37 -> 38 ;
39 [label="gini = 0.0\nsamples = 2\nvalue = [3, 0]"] ;
38 -> 39 ;
40 [label="gini = 0.0\nsamples = 1\nvalue = [0, 1]"] ;
38 -> 40 ;
41 [label="gini = 0.0\nsamples = 11\nvalue = [18, 0]"] ;
37 -> 41 ;
42 [label="max_area <= 11.5\ngini = 0.029\nsamples = 46\nvalue = [1, 67]"] ;
0 -> 42 [labeldistance=2.5, labelangle=-45, headlabel="False"] ;
43 [label="extent_skew <= -1.765\ngini = 0.32\nsamples = 4\nvalue = [1, 4]"] ;
42 -> 43 ;
44 [label="gini = 0.0\nsamples = 3\nvalue = [0, 4]"] ;
43 -> 44 ;
45 [label="gini = 0.0\nsamples = 1\nvalue = [1, 0]"] ;
43 -> 45 ;
46 [label="gini = 0.0\nsamples = 42\nvalue = [0, 63]"] ;
42 -> 46 ;
}