digraph Tree {
node [shape=box] ;
0 [label="area_variance <= 1.18\ngini = 0.4835\nsamples = 138\nvalue = [130, 90]"] ;
1 [label="mean_eccentricity <= 0.45\ngini = 0.2175\nsamples = 95\nvalue = [127, 18]"] ;
0 -> 1 [labeldistance=2.5, labelangle=45, headlabel="True"] ;
2 [label="mean_eccentricity <= 0.055\ngini = 0.2082\nsamples = 94\nvalue = [127, 17]"] ;
1 -> 2 ;
3 [label="longest_axis_largest_tumor <= 3.365\ngini = 0.1595\nsamples = 66\nvalue = [94, 9]"] ;
2 -> 3 ;
4 [label="extent_skew <= -3.325\ngini = 0.255\nsamples = 27\nvalue = [34, 6]"] ;
3 -> 4 ;
5 [label="extent_skew <= -3.915\ngini = 0.4444\nsamples = 3\nvalue = [1, 2]"] ;
4 -> 5 ;
6 [label="gini = 0.0\nsamples = 1\nvalue = [1, 0]"] ;
5 -> 6 ;
7 [label="gini = 0.0\nsamples = 2\nvalue = [0, 2]"] ;
5 -> 7 ;
8 [label="region_count <= 1.5\ngini = 0.1928\nsamples = 24\nvalue = [33, 4]"] ;
4 -> 8 ;
9 [label="extent_kurt <= 3.545\ngini = 0.1609\nsamples = 21\nvalue = [31, 3]"] ;
8 -> 9 ;
10 [label="gini = 0.1699\nsamples = 19\nvalue = [29, 3]"] ;
9 -> 10 ;
11 [label="gini = 0.0\nsamples = 2\nvalue = [2, 0]"] ;
9 -> 11 ;
12 [label="extent_kurt <= 3.205\ngini = 0.4444\nsamples = 3\nvalue = [2, 1]"] ;
8 -> 12 ;
13 [label="longest_axis_largest_tumor <= 2.635\ngini = 0.5\nsamples = 2\nvalue = [1, 1]"] ;
12 -> 13 ;
14 [label="gini = 0.0\nsamples = 1\nvalue = [1, 0]"] ;
13 -> 14 ;
15 [label="gini = 0.0\nsamples = 1\nvalue = [0, 1]"] ;
13 -> 15 ;
16 [label="gini = 0.0\nsamples = 1\nvalue = [1, 0]"] ;
12 -> 16 ;
17 [label="largest_tumor_area <= 8.5\ngini = 0.0907\nsamples = 39\nvalue = [60, 3]"] ;
3 -> 17 ;
18 [label="gini = 0.0\nsamples = 21\nvalue = [34, 0]"] ;
17 -> 18 ;
19 [label="extent_kurt <= 1.275\ngini = 0.1855\nsamples = 18\nvalue = [26, 3]"] ;
17 -> 19 ;
20 [label="extent_skew <= -1.685\ngini = 0.4444\nsamples = 3\nvalue = [4, 2]"] ;
19 -> 20 ;
21 [label="gini = 0.0\nsamples = 1\nvalue = [0, 2]"] ;
20 -> 21 ;
22 [label="gini = 0.0\nsamples = 2\nvalue = [4, 0]"] ;
20 -> 22 ;
23 [label="pixels_gt_90 <= 6.5\ngini = 0.0832\nsamples = 15\nvalue = [22, 1]"] ;
19 -> 23 ;
24 [label="region_count <= 4.0\ngini = 0.2778\nsamples = 3\nvalue = [5, 1]"] ;
23 -> 24 ;
25 [label="gini = 0.0\nsamples = 1\nvalue = [3, 0]"] ;
24 -> 25 ;
26 [label="largest_tumor_area <= 10.0\ngini = 0.4444\nsamples = 2\nvalue = [2, 1]"] ;
24 -> 26 ;
27 [label="gini = 0.0\nsamples = 1\nvalue = [2, 0]"] ;
26 -> 27 ;
28 [label="gini = 0.0\nsamples = 1\nvalue = [0, 1]"] ;
26 -> 28 ;
29 [label="gini = 0.0\nsamples = 12\nvalue = [17, 0]"] ;
23 -> 29 ;
30 [label="mean_extent <= 0.955\ngini = 0.3141\nsamples = 28\nvalue = [33, 8]"] ;
2 -> 30 ;
31 [label="largest_tumor_area <= 27.5\ngini = 0.2887\nsamples = 27\nvalue = [33, 7]"] ;
30 -> 31 ;
32 [label="longest_axis_largest_tumor <= 13.855\ngini = 0.4132\nsamples = 17\nvalue = [17, 7]"] ;
31 -> 32 ;
33 [label="avg_prediction <= 234.9\ngini = 0.3512\nsamples = 16\nvalue = [17, 5]"] ;
32 -> 33 ;
34 [label="mean_area <= 1.26\ngini = 0.1107\nsamples = 11\nvalue = [16, 1]"] ;
33 -> 34 ;
35 [label="gini = 0.0\nsamples = 10\nvalue = [16, 0]"] ;
34 -> 35 ;
36 [label="gini = 0.0\nsamples = 1\nvalue = [0, 1]"] ;
34 -> 36 ;
37 [label="area_skew <= 0.78\ngini = 0.32\nsamples = 5\nvalue = [1, 4]"] ;
33 -> 37 ;
38 [label="gini = 0.0\nsamples = 1\nvalue = [1, 0]"] ;
37 -> 38 ;
39 [label="gini = 0.0\nsamples = 4\nvalue = [0, 4]"] ;
37 -> 39 ;
40 [label="gini = 0.0\nsamples = 1\nvalue = [0, 2]"] ;
32 -> 40 ;
41 [label="gini = 0.0\nsamples = 10\nvalue = [16, 0]"] ;
31 -> 41 ;
42 [label="gini = 0.0\nsamples = 1\nvalue = [0, 1]"] ;
30 -> 42 ;
43 [label="gini = 0.0\nsamples = 1\nvalue = [0, 1]"] ;
1 -> 43 ;
44 [label="perimeter_variance <= 69.115\ngini = 0.0768\nsamples = 43\nvalue = [3, 72]"] ;
0 -> 44 [labeldistance=2.5, labelangle=-45, headlabel="False"] ;
45 [label="perimeter_kurt <= 19.695\ngini = 0.1975\nsamples = 11\nvalue = [3, 24]"] ;
44 -> 45 ;
46 [label="solidity_kurt <= 8.29\ngini = 0.0768\nsamples = 10\nvalue = [1, 24]"] ;
45 -> 46 ;
47 [label="gini = 0.0\nsamples = 8\nvalue = [0, 21]"] ;
46 -> 47 ;
48 [label="extent_kurt <= 0.39\ngini = 0.375\nsamples = 2\nvalue = [1, 3]"] ;
46 -> 48 ;
49 [label="gini = 0.0\nsamples = 1\nvalue = [0, 3]"] ;
48 -> 49 ;
50 [label="gini = 0.0\nsamples = 1\nvalue = [1, 0]"] ;
48 -> 50 ;
51 [label="gini = 0.0\nsamples = 1\nvalue = [2, 0]"] ;
45 -> 51 ;
52 [label="gini = 0.0\nsamples = 32\nvalue = [0, 48]"] ;
44 -> 52 ;
}