digraph Tree {
node [shape=box] ;
0 [label="area_variance <= 1.18\ngini = 0.4781\nsamples = 142\nvalue = [133, 87]"] ;
1 [label="pixels_gt_90 <= 4.5\ngini = 0.2902\nsamples = 97\nvalue = [131, 28]"] ;
0 -> 1 [labeldistance=2.5, labelangle=45, headlabel="True"] ;
2 [label="extent_skew <= -3.555\ngini = 0.1567\nsamples = 43\nvalue = [64, 6]"] ;
1 -> 2 ;
3 [label="longest_axis_largest_tumor <= 2.79\ngini = 0.48\nsamples = 4\nvalue = [2, 3]"] ;
2 -> 3 ;
4 [label="gini = 0.0\nsamples = 1\nvalue = [0, 2]"] ;
3 -> 4 ;
5 [label="extent_kurt <= 14.805\ngini = 0.4444\nsamples = 3\nvalue = [2, 1]"] ;
3 -> 5 ;
6 [label="gini = 0.0\nsamples = 1\nvalue = [0, 1]"] ;
5 -> 6 ;
7 [label="gini = 0.0\nsamples = 2\nvalue = [2, 0]"] ;
5 -> 7 ;
8 [label="max_extent <= 0.5\ngini = 0.088\nsamples = 39\nvalue = [62, 3]"] ;
2 -> 8 ;
9 [label="gini = 0.1472\nsamples = 14\nvalue = [23, 2]"] ;
8 -> 9 ;
10 [label="extent_variance <= 0.005\ngini = 0.0487\nsamples = 25\nvalue = [39, 1]"] ;
8 -> 10 ;
11 [label="largest_tumor_area <= 2.5\ngini = 0.375\nsamples = 3\nvalue = [3, 1]"] ;
10 -> 11 ;
12 [label="gini = 0.0\nsamples = 2\nvalue = [3, 0]"] ;
11 -> 12 ;
13 [label="gini = 0.0\nsamples = 1\nvalue = [0, 1]"] ;
11 -> 13 ;
14 [label="gini = 0.0\nsamples = 22\nvalue = [36, 0]"] ;
10 -> 14 ;
15 [label="mean_area <= 1.445\ngini = 0.3722\nsamples = 54\nvalue = [67, 22]"] ;
1 -> 15 ;
16 [label="mean_extent <= 0.935\ngini = 0.3338\nsamples = 52\nvalue = [67, 18]"] ;
15 -> 16 ;
17 [label="avg_prediction <= 234.545\ngini = 0.2344\nsamples = 37\nvalue = [51, 8]"] ;
16 -> 17 ;
18 [label="solidity_variance <= 0.005\ngini = 0.1528\nsamples = 30\nvalue = [44, 4]"] ;
17 -> 18 ;
19 [label="avg_prediction <= 232.655\ngini = 0.0832\nsamples = 29\nvalue = [44, 2]"] ;
18 -> 19 ;
20 [label="extent_variance <= 0.035\ngini = 0.375\nsamples = 4\nvalue = [3, 1]"] ;
19 -> 20 ;
21 [label="gini = 0.0\nsamples = 1\nvalue = [1, 0]"] ;
20 -> 21 ;
22 [label="longest_axis_largest_tumor <= 8.7\ngini = 0.4444\nsamples = 3\nvalue = [2, 1]"] ;
20 -> 22 ;
23 [label="gini = 0.0\nsamples = 1\nvalue = [0, 1]"] ;
22 -> 23 ;
24 [label="gini = 0.0\nsamples = 2\nvalue = [2, 0]"] ;
22 -> 24 ;
25 [label="mean_eccentricity <= 0.155\ngini = 0.0465\nsamples = 25\nvalue = [41, 1]"] ;
19 -> 25 ;
26 [label="gini = 0.0\nsamples = 17\nvalue = [28, 0]"] ;
25 -> 26 ;
27 [label="mean_perimeter <= 0.03\ngini = 0.1327\nsamples = 8\nvalue = [13, 1]"] ;
25 -> 27 ;
28 [label="extent_variance <= 0.04\ngini = 0.375\nsamples = 3\nvalue = [3, 1]"] ;
27 -> 28 ;
29 [label="gini = 0.0\nsamples = 1\nvalue = [0, 1]"] ;
28 -> 29 ;
30 [label="gini = 0.0\nsamples = 2\nvalue = [3, 0]"] ;
28 -> 30 ;
31 [label="gini = 0.0\nsamples = 5\nvalue = [10, 0]"] ;
27 -> 31 ;
32 [label="gini = 0.0\nsamples = 1\nvalue = [0, 2]"] ;
18 -> 32 ;
33 [label="area_kurt <= 5.21\ngini = 0.4628\nsamples = 7\nvalue = [7, 4]"] ;
17 -> 33 ;
34 [label="gini = 0.0\nsamples = 5\nvalue = [7, 0]"] ;
33 -> 34 ;
35 [label="gini = 0.0\nsamples = 2\nvalue = [0, 4]"] ;
33 -> 35 ;
36 [label="pixels_gt_90 <= 8.5\ngini = 0.4734\nsamples = 15\nvalue = [16, 10]"] ;
16 -> 36 ;
37 [label="extent_variance <= 0.025\ngini = 0.32\nsamples = 8\nvalue = [12, 3]"] ;
36 -> 37 ;
38 [label="gini = 0.0\nsamples = 5\nvalue = [10, 0]"] ;
37 -> 38 ;
39 [label="extent_skew <= -2.555\ngini = 0.48\nsamples = 3\nvalue = [2, 3]"] ;
37 -> 39 ;
40 [label="gini = 0.0\nsamples = 1\nvalue = [1, 0]"] ;
39 -> 40 ;
41 [label="area_skew <= 0.575\ngini = 0.375\nsamples = 2\nvalue = [1, 3]"] ;
39 -> 41 ;
42 [label="gini = 0.0\nsamples = 1\nvalue = [0, 3]"] ;
41 -> 42 ;
43 [label="gini = 0.0\nsamples = 1\nvalue = [1, 0]"] ;
41 -> 43 ;
44 [label="mean_eccentricity <= 0.11\ngini = 0.4628\nsamples = 7\nvalue = [4, 7]"] ;
36 -> 44 ;
45 [label="extent_kurt <= 5.025\ngini = 0.375\nsamples = 3\nvalue = [3, 1]"] ;
44 -> 45 ;
46 [label="gini = 0.0\nsamples = 1\nvalue = [0, 1]"] ;
45 -> 46 ;
47 [label="gini = 0.0\nsamples = 2\nvalue = [3, 0]"] ;
45 -> 47 ;
48 [label="extent_skew <= -2.77\ngini = 0.2449\nsamples = 4\nvalue = [1, 6]"] ;
44 -> 48 ;
49 [label="gini = 0.0\nsamples = 1\nvalue = [1, 0]"] ;
48 -> 49 ;
50 [label="gini = 0.0\nsamples = 3\nvalue = [0, 6]"] ;
48 -> 50 ;
51 [label="gini = 0.0\nsamples = 2\nvalue = [0, 4]"] ;
15 -> 51 ;
52 [label="perimeter_variance <= 69.115\ngini = 0.0634\nsamples = 45\nvalue = [2, 59]"] ;
0 -> 52 [labeldistance=2.5, labelangle=-45, headlabel="False"] ;
53 [label="max_perimeter <= 45.97\ngini = 0.2311\nsamples = 11\nvalue = [2, 13]"] ;
52 -> 53 ;
54 [label="gini = 0.0\nsamples = 10\nvalue = [0, 13]"] ;
53 -> 54 ;
55 [label="gini = 0.0\nsamples = 1\nvalue = [2, 0]"] ;
53 -> 55 ;
56 [label="gini = 0.0\nsamples = 34\nvalue = [0, 46]"] ;
52 -> 56 ;
}