digraph Tree {
node [shape=box] ;
0 [label="eccentricity_variance <= 0.165\ngini = 0.4866\nsamples = 144\nvalue = [128, 92]"] ;
1 [label="max_area <= 12.0\ngini = 0.3824\nsamples = 114\nvalue = [124, 43]"] ;
0 -> 1 [labeldistance=2.5, labelangle=45, headlabel="True"] ;
2 [label="area_variance <= 0.42\ngini = 0.2793\nsamples = 100\nvalue = [124, 25]"] ;
1 -> 2 ;
3 [label="extent_skew <= -3.67\ngini = 0.2355\nsamples = 88\nvalue = [114, 18]"] ;
2 -> 3 ;
4 [label="extent_skew <= -4.325\ngini = 0.4688\nsamples = 5\nvalue = [5, 3]"] ;
3 -> 4 ;
5 [label="gini = 0.0\nsamples = 3\nvalue = [5, 0]"] ;
4 -> 5 ;
6 [label="gini = 0.0\nsamples = 2\nvalue = [0, 3]"] ;
4 -> 6 ;
7 [label="largest_tumor_area <= 7.5\ngini = 0.2127\nsamples = 83\nvalue = [109, 15]"] ;
3 -> 7 ;
8 [label="longest_axis_largest_tumor <= 3.295\ngini = 0.0868\nsamples = 45\nvalue = [63, 3]"] ;
7 -> 8 ;
9 [label="region_count <= 1.5\ngini = 0.1609\nsamples = 24\nvalue = [31, 3]"] ;
8 -> 9 ;
10 [label="max_area <= 0.5\ngini = 0.0624\nsamples = 21\nvalue = [30, 1]"] ;
9 -> 10 ;
11 [label="gini = 0.0713\nsamples = 18\nvalue = [26, 1]"] ;
10 -> 11 ;
12 [label="gini = 0.0\nsamples = 3\nvalue = [4, 0]"] ;
10 -> 12 ;
13 [label="avg_prediction <= 236.75\ngini = 0.4444\nsamples = 3\nvalue = [1, 2]"] ;
9 -> 13 ;
14 [label="gini = 0.0\nsamples = 2\nvalue = [0, 2]"] ;
13 -> 14 ;
15 [label="gini = 0.0\nsamples = 1\nvalue = [1, 0]"] ;
13 -> 15 ;
16 [label="gini = 0.0\nsamples = 21\nvalue = [32, 0]"] ;
8 -> 16 ;
17 [label="extent_variance <= 0.025\ngini = 0.3282\nsamples = 38\nvalue = [46, 12]"] ;
7 -> 17 ;
18 [label="largest_tumor_area <= 9.5\ngini = 0.48\nsamples = 3\nvalue = [2, 3]"] ;
17 -> 18 ;
19 [label="gini = 0.0\nsamples = 1\nvalue = [0, 3]"] ;
18 -> 19 ;
20 [label="gini = 0.0\nsamples = 2\nvalue = [2, 0]"] ;
18 -> 20 ;
21 [label="extent_skew <= -2.735\ngini = 0.282\nsamples = 35\nvalue = [44, 9]"] ;
17 -> 21 ;
22 [label="gini = 0.0\nsamples = 1\nvalue = [0, 1]"] ;
21 -> 22 ;
23 [label="perimeter_variance <= 0.045\ngini = 0.2604\nsamples = 34\nvalue = [44, 8]"] ;
21 -> 23 ;
24 [label="largest_tumor_area <= 12.0\ngini = 0.3141\nsamples = 28\nvalue = [33, 8]"] ;
23 -> 24 ;
25 [label="pixels_gt_90 <= 9.5\ngini = 0.4654\nsamples = 12\nvalue = [12, 7]"] ;
24 -> 25 ;
26 [label="max_area <= 1.5\ngini = 0.2604\nsamples = 9\nvalue = [11, 2]"] ;
25 -> 26 ;
27 [label="extent_skew <= -2.39\ngini = 0.1653\nsamples = 7\nvalue = [10, 1]"] ;
26 -> 27 ;
28 [label="longest_axis_largest_tumor <= 7.415\ngini = 0.5\nsamples = 2\nvalue = [1, 1]"] ;
27 -> 28 ;
29 [label="gini = 0.0\nsamples = 1\nvalue = [0, 1]"] ;
28 -> 29 ;
30 [label="gini = 0.0\nsamples = 1\nvalue = [1, 0]"] ;
28 -> 30 ;
31 [label="gini = 0.0\nsamples = 5\nvalue = [9, 0]"] ;
27 -> 31 ;
32 [label="mean_eccentricity <= 0.17\ngini = 0.5\nsamples = 2\nvalue = [1, 1]"] ;
26 -> 32 ;
33 [label="gini = 0.0\nsamples = 1\nvalue = [1, 0]"] ;
32 -> 33 ;
34 [label="gini = 0.0\nsamples = 1\nvalue = [0, 1]"] ;
32 -> 34 ;
35 [label="area_skew <= 2.9\ngini = 0.2778\nsamples = 3\nvalue = [1, 5]"] ;
25 -> 35 ;
36 [label="gini = 0.0\nsamples = 2\nvalue = [0, 5]"] ;
35 -> 36 ;
37 [label="gini = 0.0\nsamples = 1\nvalue = [1, 0]"] ;
35 -> 37 ;
38 [label="area_kurt <= 11.315\ngini = 0.0868\nsamples = 16\nvalue = [21, 1]"] ;
24 -> 38 ;
39 [label="gini = 0.0\nsamples = 11\nvalue = [15, 0]"] ;
38 -> 39 ;
40 [label="area_kurt <= 12.56\ngini = 0.2449\nsamples = 5\nvalue = [6, 1]"] ;
38 -> 40 ;
41 [label="extent_kurt <= 2.83\ngini = 0.5\nsamples = 2\nvalue = [1, 1]"] ;
40 -> 41 ;
42 [label="gini = 0.0\nsamples = 1\nvalue = [0, 1]"] ;
41 -> 42 ;
43 [label="gini = 0.0\nsamples = 1\nvalue = [1, 0]"] ;
41 -> 43 ;
44 [label="gini = 0.0\nsamples = 3\nvalue = [5, 0]"] ;
40 -> 44 ;
45 [label="gini = 0.0\nsamples = 6\nvalue = [11, 0]"] ;
23 -> 45 ;
46 [label="largest_tumor_area <= 18.5\ngini = 0.4844\nsamples = 12\nvalue = [10, 7]"] ;
2 -> 46 ;
47 [label="gini = 0.0\nsamples = 4\nvalue = [0, 6]"] ;
46 -> 47 ;
48 [label="avg_prediction <= 235.445\ngini = 0.1653\nsamples = 8\nvalue = [10, 1]"] ;
46 -> 48 ;
49 [label="gini = 0.0\nsamples = 7\nvalue = [10, 0]"] ;
48 -> 49 ;
50 [label="gini = 0.0\nsamples = 1\nvalue = [0, 1]"] ;
48 -> 50 ;
51 [label="gini = 0.0\nsamples = 14\nvalue = [0, 18]"] ;
1 -> 51 ;
52 [label="avg_prediction <= 234.27\ngini = 0.1396\nsamples = 30\nvalue = [4, 49]"] ;
0 -> 52 [labeldistance=2.5, labelangle=-45, headlabel="False"] ;
53 [label="mean_eccentricity <= 0.405\ngini = 0.4898\nsamples = 4\nvalue = [3, 4]"] ;
52 -> 53 ;
54 [label="gini = 0.0\nsamples = 3\nvalue = [3, 0]"] ;
53 -> 54 ;
55 [label="gini = 0.0\nsamples = 1\nvalue = [0, 4]"] ;
53 -> 55 ;
56 [label="region_count <= 82.5\ngini = 0.0425\nsamples = 26\nvalue = [1, 45]"] ;
52 -> 56 ;
57 [label="gini = 0.0\nsamples = 19\nvalue = [0, 36]"] ;
56 -> 57 ;
58 [label="mean_area <= 4.95\ngini = 0.18\nsamples = 7\nvalue = [1, 9]"] ;
56 -> 58 ;
59 [label="gini = 0.0\nsamples = 1\nvalue = [1, 0]"] ;
58 -> 59 ;
60 [label="gini = 0.0\nsamples = 6\nvalue = [0, 9]"] ;
58 -> 60 ;
}