digraph Tree {
node [shape=box] ;
0 [label="perimeter_variance <= 1.22\ngini = 0.455\nsamples = 141\nvalue = [143, 77]"] ;
1 [label="largest_tumor_area <= 27.5\ngini = 0.2486\nsamples = 104\nvalue = [141, 24]"] ;
0 -> 1 [labeldistance=2.5, labelangle=45, headlabel="True"] ;
2 [label="area_variance <= 0.285\ngini = 0.2873\nsamples = 89\nvalue = [114, 24]"] ;
1 -> 2 ;
3 [label="avg_prediction <= 235.3\ngini = 0.2303\nsamples = 82\nvalue = [111, 17]"] ;
2 -> 3 ;
4 [label="extent_skew <= -2.785\ngini = 0.1841\nsamples = 72\nvalue = [105, 12]"] ;
3 -> 4 ;
5 [label="gini = 0.0\nsamples = 16\nvalue = [25, 0]"] ;
4 -> 5 ;
6 [label="extent_kurt <= 5.845\ngini = 0.2268\nsamples = 56\nvalue = [80, 12]"] ;
4 -> 6 ;
7 [label="extent_kurt <= 3.775\ngini = 0.1818\nsamples = 55\nvalue = [80, 9]"] ;
6 -> 7 ;
8 [label="eccentricity_skew <= 3.57\ngini = 0.1276\nsamples = 43\nvalue = [68, 5]"] ;
7 -> 8 ;
9 [label="region_count <= 0.5\ngini = 0.1123\nsamples = 40\nvalue = [63, 4]"] ;
8 -> 9 ;
10 [label="gini = 0.1855\nsamples = 16\nvalue = [26, 3]"] ;
9 -> 10 ;
11 [label="pixels_gt_90 <= 10.5\ngini = 0.0512\nsamples = 24\nvalue = [37, 1]"] ;
9 -> 11 ;
12 [label="gini = 0.0\nsamples = 16\nvalue = [28, 0]"] ;
11 -> 12 ;
13 [label="max_eccentricity <= 0.5\ngini = 0.18\nsamples = 8\nvalue = [9, 1]"] ;
11 -> 13 ;
14 [label="extent_variance <= 0.035\ngini = 0.2449\nsamples = 5\nvalue = [6, 1]"] ;
13 -> 14 ;
15 [label="gini = 0.0\nsamples = 1\nvalue = [1, 0]"] ;
14 -> 15 ;
16 [label="extent_kurt <= 0.86\ngini = 0.2778\nsamples = 4\nvalue = [5, 1]"] ;
14 -> 16 ;
17 [label="gini = 0.0\nsamples = 1\nvalue = [3, 0]"] ;
16 -> 17 ;
18 [label="mean_extent <= 0.91\ngini = 0.4444\nsamples = 3\nvalue = [2, 1]"] ;
16 -> 18 ;
19 [label="gini = 0.0\nsamples = 1\nvalue = [0, 1]"] ;
18 -> 19 ;
20 [label="gini = 0.0\nsamples = 2\nvalue = [2, 0]"] ;
18 -> 20 ;
21 [label="gini = 0.0\nsamples = 3\nvalue = [3, 0]"] ;
13 -> 21 ;
22 [label="mean_eccentricity <= 0.055\ngini = 0.2778\nsamples = 3\nvalue = [5, 1]"] ;
8 -> 22 ;
23 [label="gini = 0.0\nsamples = 2\nvalue = [5, 0]"] ;
22 -> 23 ;
24 [label="gini = 0.0\nsamples = 1\nvalue = [0, 1]"] ;
22 -> 24 ;
25 [label="area_kurt <= 1.055\ngini = 0.375\nsamples = 12\nvalue = [12, 4]"] ;
7 -> 25 ;
26 [label="mean_extent <= 0.945\ngini = 0.426\nsamples = 9\nvalue = [9, 4]"] ;
25 -> 26 ;
27 [label="avg_prediction <= 230.165\ngini = 0.5\nsamples = 5\nvalue = [4, 4]"] ;
26 -> 27 ;
28 [label="gini = 0.0\nsamples = 1\nvalue = [0, 3]"] ;
27 -> 28 ;
29 [label="extent_variance <= 0.025\ngini = 0.32\nsamples = 4\nvalue = [4, 1]"] ;
27 -> 29 ;
30 [label="gini = 0.0\nsamples = 1\nvalue = [0, 1]"] ;
29 -> 30 ;
31 [label="gini = 0.0\nsamples = 3\nvalue = [4, 0]"] ;
29 -> 31 ;
32 [label="gini = 0.0\nsamples = 4\nvalue = [5, 0]"] ;
26 -> 32 ;
33 [label="gini = 0.0\nsamples = 3\nvalue = [3, 0]"] ;
25 -> 33 ;
34 [label="gini = 0.0\nsamples = 1\nvalue = [0, 3]"] ;
6 -> 34 ;
35 [label="longest_axis_largest_tumor <= 5.22\ngini = 0.4959\nsamples = 10\nvalue = [6, 5]"] ;
3 -> 35 ;
36 [label="longest_axis_largest_tumor <= 2.57\ngini = 0.375\nsamples = 7\nvalue = [6, 2]"] ;
35 -> 36 ;
37 [label="extent_kurt <= 16.5\ngini = 0.4444\nsamples = 3\nvalue = [1, 2]"] ;
36 -> 37 ;
38 [label="gini = 0.0\nsamples = 2\nvalue = [0, 2]"] ;
37 -> 38 ;
39 [label="gini = 0.0\nsamples = 1\nvalue = [1, 0]"] ;
37 -> 39 ;
40 [label="gini = 0.0\nsamples = 4\nvalue = [5, 0]"] ;
36 -> 40 ;
41 [label="gini = 0.0\nsamples = 3\nvalue = [0, 3]"] ;
35 -> 41 ;
42 [label="largest_tumor_area <= 18.5\ngini = 0.42\nsamples = 7\nvalue = [3, 7]"] ;
2 -> 42 ;
43 [label="perimeter_variance <= 1.055\ngini = 0.2188\nsamples = 6\nvalue = [1, 7]"] ;
42 -> 43 ;
44 [label="gini = 0.0\nsamples = 4\nvalue = [0, 6]"] ;
43 -> 44 ;
45 [label="area_variance <= 0.42\ngini = 0.5\nsamples = 2\nvalue = [1, 1]"] ;
43 -> 45 ;
46 [label="gini = 0.0\nsamples = 1\nvalue = [1, 0]"] ;
45 -> 46 ;
47 [label="gini = 0.0\nsamples = 1\nvalue = [0, 1]"] ;
45 -> 47 ;
48 [label="gini = 0.0\nsamples = 1\nvalue = [2, 0]"] ;
42 -> 48 ;
49 [label="gini = 0.0\nsamples = 15\nvalue = [27, 0]"] ;
1 -> 49 ;
50 [label="largest_tumor_area <= 36.0\ngini = 0.0701\nsamples = 37\nvalue = [2, 53]"] ;
0 -> 50 [labeldistance=2.5, labelangle=-45, headlabel="False"] ;
51 [label="area_kurt <= 7.57\ngini = 0.2778\nsamples = 3\nvalue = [1, 5]"] ;
50 -> 51 ;
52 [label="gini = 0.0\nsamples = 2\nvalue = [0, 5]"] ;
51 -> 52 ;
53 [label="gini = 0.0\nsamples = 1\nvalue = [1, 0]"] ;
51 -> 53 ;
54 [label="avg_prediction <= 235.11\ngini = 0.04\nsamples = 34\nvalue = [1, 48]"] ;
50 -> 54 ;
55 [label="avg_prediction <= 235.055\ngini = 0.1653\nsamples = 10\nvalue = [1, 10]"] ;
54 -> 55 ;
56 [label="gini = 0.0\nsamples = 9\nvalue = [0, 10]"] ;
55 -> 56 ;
57 [label="gini = 0.0\nsamples = 1\nvalue = [1, 0]"] ;
55 -> 57 ;
58 [label="gini = 0.0\nsamples = 24\nvalue = [0, 38]"] ;
54 -> 58 ;
}