digraph Tree {
node [shape=box] ;
0 [label="eccentricity_variance <= 0.085\ngini = 0.4985\nsamples = 140\nvalue = [116, 104]"] ;
1 [label="perimeter_variance <= 1.21\ngini = 0.2798\nsamples = 72\nvalue = [89, 18]"] ;
0 -> 1 [labeldistance=2.5, labelangle=45, headlabel="True"] ;
2 [label="pixels_gt_90 <= 11.5\ngini = 0.2349\nsamples = 69\nvalue = [89, 14]"] ;
1 -> 2 ;
3 [label="extent_kurt <= 11.435\ngini = 0.1742\nsamples = 56\nvalue = [75, 8]"] ;
2 -> 3 ;
4 [label="avg_prediction <= 234.2\ngini = 0.1229\nsamples = 51\nvalue = [71, 5]"] ;
3 -> 4 ;
5 [label="extent_skew <= -2.35\ngini = 0.0377\nsamples = 37\nvalue = [51, 1]"] ;
4 -> 5 ;
6 [label="avg_prediction <= 230.165\ngini = 0.1528\nsamples = 10\nvalue = [11, 1]"] ;
5 -> 6 ;
7 [label="largest_tumor_area <= 4.0\ngini = 0.375\nsamples = 3\nvalue = [3, 1]"] ;
6 -> 7 ;
8 [label="mean_extent <= 0.945\ngini = 0.4444\nsamples = 2\nvalue = [2, 1]"] ;
7 -> 8 ;
9 [label="gini = 0.0\nsamples = 1\nvalue = [0, 1]"] ;
8 -> 9 ;
10 [label="gini = 0.0\nsamples = 1\nvalue = [2, 0]"] ;
8 -> 10 ;
11 [label="gini = 0.0\nsamples = 1\nvalue = [1, 0]"] ;
7 -> 11 ;
12 [label="gini = 0.0\nsamples = 7\nvalue = [8, 0]"] ;
6 -> 12 ;
13 [label="gini = 0.0\nsamples = 27\nvalue = [40, 0]"] ;
5 -> 13 ;
14 [label="extent_skew <= -0.905\ngini = 0.2778\nsamples = 14\nvalue = [20, 4]"] ;
4 -> 14 ;
15 [label="mean_extent <= 0.935\ngini = 0.18\nsamples = 12\nvalue = [18, 2]"] ;
14 -> 15 ;
16 [label="gini = 0.0\nsamples = 5\nvalue = [6, 0]"] ;
15 -> 16 ;
17 [label="avg_prediction <= 234.7\ngini = 0.2449\nsamples = 7\nvalue = [12, 2]"] ;
15 -> 17 ;
18 [label="gini = 0.0\nsamples = 1\nvalue = [0, 1]"] ;
17 -> 18 ;
19 [label="region_count <= 4.5\ngini = 0.142\nsamples = 6\nvalue = [12, 1]"] ;
17 -> 19 ;
20 [label="gini = 0.0\nsamples = 3\nvalue = [8, 0]"] ;
19 -> 20 ;
21 [label="pixels_gt_90 <= 5.5\ngini = 0.32\nsamples = 3\nvalue = [4, 1]"] ;
19 -> 21 ;
22 [label="gini = 0.0\nsamples = 1\nvalue = [0, 1]"] ;
21 -> 22 ;
23 [label="gini = 0.0\nsamples = 2\nvalue = [4, 0]"] ;
21 -> 23 ;
24 [label="largest_tumor_area <= 2.5\ngini = 0.5\nsamples = 2\nvalue = [2, 2]"] ;
14 -> 24 ;
25 [label="gini = 0.0\nsamples = 1\nvalue = [2, 0]"] ;
24 -> 25 ;
26 [label="gini = 0.0\nsamples = 1\nvalue = [0, 2]"] ;
24 -> 26 ;
27 [label="region_count <= 1.5\ngini = 0.4898\nsamples = 5\nvalue = [4, 3]"] ;
3 -> 27 ;
28 [label="extent_kurt <= 16.5\ngini = 0.4444\nsamples = 4\nvalue = [4, 2]"] ;
27 -> 28 ;
29 [label="largest_tumor_area <= 5.0\ngini = 0.4444\nsamples = 2\nvalue = [1, 2]"] ;
28 -> 29 ;
30 [label="gini = 0.0\nsamples = 1\nvalue = [0, 2]"] ;
29 -> 30 ;
31 [label="gini = 0.0\nsamples = 1\nvalue = [1, 0]"] ;
29 -> 31 ;
32 [label="gini = 0.0\nsamples = 2\nvalue = [3, 0]"] ;
28 -> 32 ;
33 [label="gini = 0.0\nsamples = 1\nvalue = [0, 1]"] ;
27 -> 33 ;
34 [label="extent_skew <= -2.475\ngini = 0.42\nsamples = 13\nvalue = [14, 6]"] ;
2 -> 34 ;
35 [label="gini = 0.0\nsamples = 1\nvalue = [0, 4]"] ;
34 -> 35 ;
36 [label="longest_axis_largest_tumor <= 12.705\ngini = 0.2188\nsamples = 12\nvalue = [14, 2]"] ;
34 -> 36 ;
37 [label="gini = 0.0\nsamples = 9\nvalue = [11, 0]"] ;
36 -> 37 ;
38 [label="eccentricity_variance <= 0.065\ngini = 0.48\nsamples = 3\nvalue = [3, 2]"] ;
36 -> 38 ;
39 [label="gini = 0.0\nsamples = 1\nvalue = [0, 2]"] ;
38 -> 39 ;
40 [label="gini = 0.0\nsamples = 2\nvalue = [3, 0]"] ;
38 -> 40 ;
41 [label="gini = 0.0\nsamples = 3\nvalue = [0, 4]"] ;
1 -> 41 ;
42 [label="max_area <= 10.5\ngini = 0.3637\nsamples = 68\nvalue = [27, 86]"] ;
0 -> 42 [labeldistance=2.5, labelangle=-45, headlabel="False"] ;
43 [label="perimeter_kurt <= 5.495\ngini = 0.4383\nsamples = 25\nvalue = [25, 12]"] ;
42 -> 43 ;
44 [label="mean_extent <= 0.905\ngini = 0.4898\nsamples = 14\nvalue = [9, 12]"] ;
43 -> 44 ;
45 [label="gini = 0.0\nsamples = 1\nvalue = [3, 0]"] ;
44 -> 45 ;
46 [label="mean_area <= 1.155\ngini = 0.4444\nsamples = 13\nvalue = [6, 12]"] ;
44 -> 46 ;
47 [label="extent_kurt <= 4.365\ngini = 0.32\nsamples = 3\nvalue = [4, 1]"] ;
46 -> 47 ;
48 [label="gini = 0.0\nsamples = 2\nvalue = [4, 0]"] ;
47 -> 48 ;
49 [label="gini = 0.0\nsamples = 1\nvalue = [0, 1]"] ;
47 -> 49 ;
50 [label="extent_variance <= 0.025\ngini = 0.2604\nsamples = 10\nvalue = [2, 11]"] ;
46 -> 50 ;
51 [label="gini = 0.0\nsamples = 1\nvalue = [1, 0]"] ;
50 -> 51 ;
52 [label="eccentricity_variance <= 0.18\ngini = 0.1528\nsamples = 9\nvalue = [1, 11]"] ;
50 -> 52 ;
53 [label="gini = 0.0\nsamples = 5\nvalue = [0, 7]"] ;
52 -> 53 ;
54 [label="avg_prediction <= 232.815\ngini = 0.32\nsamples = 4\nvalue = [1, 4]"] ;
52 -> 54 ;
55 [label="gini = 0.0\nsamples = 1\nvalue = [1, 0]"] ;
54 -> 55 ;
56 [label="gini = 0.0\nsamples = 3\nvalue = [0, 4]"] ;
54 -> 56 ;
57 [label="gini = 0.0\nsamples = 11\nvalue = [16, 0]"] ;
43 -> 57 ;
58 [label="perimeter_variance <= 69.115\ngini = 0.0512\nsamples = 43\nvalue = [2, 74]"] ;
42 -> 58 ;
59 [label="pixels_gt_90 <= 364.0\ngini = 0.1588\nsamples = 11\nvalue = [2, 21]"] ;
58 -> 59 ;
60 [label="gini = 0.0\nsamples = 10\nvalue = [0, 21]"] ;
59 -> 60 ;
61 [label="gini = 0.0\nsamples = 1\nvalue = [2, 0]"] ;
59 -> 61 ;
62 [label="gini = 0.0\nsamples = 32\nvalue = [0, 53]"] ;
58 -> 62 ;
}