digraph Tree {
node [shape=box] ;
0 [label="area_variance <= 0.42\ngini = 0.4742\nsamples = 146\nvalue = [135, 85]"] ;
1 [label="avg_prediction <= 234.325\ngini = 0.2037\nsamples = 91\nvalue = [123, 16]"] ;
0 -> 1 [labeldistance=2.5, labelangle=45, headlabel="True"] ;
2 [label="mean_eccentricity <= 0.015\ngini = 0.0924\nsamples = 66\nvalue = [98, 5]"] ;
1 -> 2 ;
3 [label="extent_variance <= 0.035\ngini = 0.126\nsamples = 48\nvalue = [69, 5]"] ;
2 -> 3 ;
4 [label="max_solidity <= 0.5\ngini = 0.088\nsamples = 42\nvalue = [62, 3]"] ;
3 -> 4 ;
5 [label="gini = 0.1472\nsamples = 16\nvalue = [23, 2]"] ;
4 -> 5 ;
6 [label="region_count <= 10.5\ngini = 0.0487\nsamples = 26\nvalue = [39, 1]"] ;
4 -> 6 ;
7 [label="gini = 0.0\nsamples = 25\nvalue = [39, 0]"] ;
6 -> 7 ;
8 [label="gini = 0.0\nsamples = 1\nvalue = [0, 1]"] ;
6 -> 8 ;
9 [label="extent_kurt <= 0.99\ngini = 0.3457\nsamples = 6\nvalue = [7, 2]"] ;
3 -> 9 ;
10 [label="gini = 0.0\nsamples = 3\nvalue = [4, 0]"] ;
9 -> 10 ;
11 [label="extent_skew <= -1.935\ngini = 0.48\nsamples = 3\nvalue = [3, 2]"] ;
9 -> 11 ;
12 [label="gini = 0.0\nsamples = 2\nvalue = [3, 0]"] ;
11 -> 12 ;
13 [label="gini = 0.0\nsamples = 1\nvalue = [0, 2]"] ;
11 -> 13 ;
14 [label="gini = 0.0\nsamples = 18\nvalue = [29, 0]"] ;
2 -> 14 ;
15 [label="largest_tumor_area <= 4.5\ngini = 0.4244\nsamples = 25\nvalue = [25, 11]"] ;
1 -> 15 ;
16 [label="extent_skew <= -3.265\ngini = 0.4592\nsamples = 11\nvalue = [5, 9]"] ;
15 -> 16 ;
17 [label="avg_prediction <= 237.0\ngini = 0.2449\nsamples = 5\nvalue = [1, 6]"] ;
16 -> 17 ;
18 [label="gini = 0.0\nsamples = 3\nvalue = [0, 4]"] ;
17 -> 18 ;
19 [label="extent_kurt <= 14.505\ngini = 0.4444\nsamples = 2\nvalue = [1, 2]"] ;
17 -> 19 ;
20 [label="gini = 0.0\nsamples = 1\nvalue = [0, 2]"] ;
19 -> 20 ;
21 [label="gini = 0.0\nsamples = 1\nvalue = [1, 0]"] ;
19 -> 21 ;
22 [label="extent_skew <= -2.975\ngini = 0.4898\nsamples = 6\nvalue = [4, 3]"] ;
16 -> 22 ;
23 [label="gini = 0.0\nsamples = 2\nvalue = [2, 0]"] ;
22 -> 23 ;
24 [label="pixels_gt_90 <= 3.5\ngini = 0.48\nsamples = 4\nvalue = [2, 3]"] ;
22 -> 24 ;
25 [label="longest_axis_largest_tumor <= 2.635\ngini = 0.375\nsamples = 3\nvalue = [1, 3]"] ;
24 -> 25 ;
26 [label="gini = 0.0\nsamples = 1\nvalue = [1, 0]"] ;
25 -> 26 ;
27 [label="gini = 0.0\nsamples = 2\nvalue = [0, 3]"] ;
25 -> 27 ;
28 [label="gini = 0.0\nsamples = 1\nvalue = [1, 0]"] ;
24 -> 28 ;
29 [label="mean_eccentricity <= 0.21\ngini = 0.1653\nsamples = 14\nvalue = [20, 2]"] ;
15 -> 29 ;
30 [label="area_skew <= 0.75\ngini = 0.0907\nsamples = 13\nvalue = [20, 1]"] ;
29 -> 30 ;
31 [label="mean_extent <= 0.935\ngini = 0.1172\nsamples = 9\nvalue = [15, 1]"] ;
30 -> 31 ;
32 [label="gini = 0.0\nsamples = 4\nvalue = [9, 0]"] ;
31 -> 32 ;
33 [label="extent_variance <= 0.025\ngini = 0.2449\nsamples = 5\nvalue = [6, 1]"] ;
31 -> 33 ;
34 [label="gini = 0.0\nsamples = 4\nvalue = [6, 0]"] ;
33 -> 34 ;
35 [label="gini = 0.0\nsamples = 1\nvalue = [0, 1]"] ;
33 -> 35 ;
36 [label="gini = 0.0\nsamples = 4\nvalue = [5, 0]"] ;
30 -> 36 ;
37 [label="gini = 0.0\nsamples = 1\nvalue = [0, 1]"] ;
29 -> 37 ;
38 [label="mean_eccentricity <= 0.235\ngini = 0.2524\nsamples = 55\nvalue = [12, 69]"] ;
0 -> 38 [labeldistance=2.5, labelangle=-45, headlabel="False"] ;
39 [label="max_perimeter <= 9.745\ngini = 0.4444\nsamples = 24\nvalue = [10, 20]"] ;
38 -> 39 ;
40 [label="mean_area <= 1.295\ngini = 0.4688\nsamples = 12\nvalue = [10, 6]"] ;
39 -> 40 ;
41 [label="max_perimeter <= 5.31\ngini = 0.2449\nsamples = 5\nvalue = [1, 6]"] ;
40 -> 41 ;
42 [label="gini = 0.0\nsamples = 4\nvalue = [0, 6]"] ;
41 -> 42 ;
43 [label="gini = 0.0\nsamples = 1\nvalue = [1, 0]"] ;
41 -> 43 ;
44 [label="gini = 0.0\nsamples = 7\nvalue = [9, 0]"] ;
40 -> 44 ;
45 [label="gini = 0.0\nsamples = 12\nvalue = [0, 14]"] ;
39 -> 45 ;
46 [label="extent_skew <= -1.59\ngini = 0.0754\nsamples = 31\nvalue = [2, 49]"] ;
38 -> 46 ;
47 [label="gini = 0.0\nsamples = 22\nvalue = [0, 39]"] ;
46 -> 47 ;
48 [label="extent_skew <= -1.51\ngini = 0.2778\nsamples = 9\nvalue = [2, 10]"] ;
46 -> 48 ;
49 [label="gini = 0.0\nsamples = 1\nvalue = [2, 0]"] ;
48 -> 49 ;
50 [label="gini = 0.0\nsamples = 8\nvalue = [0, 10]"] ;
48 -> 50 ;
}