digraph Tree {
node [shape=box] ;
0 [label="area_variance <= 1.16\ngini = 0.493\nsamples = 133\nvalue = [123, 97]"] ;
1 [label="avg_prediction <= 234.585\ngini = 0.3119\nsamples = 98\nvalue = [121, 29]"] ;
0 -> 1 [labeldistance=2.5, labelangle=45, headlabel="True"] ;
2 [label="area_variance <= 0.055\ngini = 0.1653\nsamples = 73\nvalue = [100, 10]"] ;
1 -> 2 ;
3 [label="extent_variance <= 0.025\ngini = 0.0731\nsamples = 52\nvalue = [76, 3]"] ;
2 -> 3 ;
4 [label="avg_prediction <= 234.31\ngini = 0.115\nsamples = 32\nvalue = [46, 3]"] ;
3 -> 4 ;
5 [label="perimeter_kurt <= -1.5\ngini = 0.0799\nsamples = 31\nvalue = [46, 2]"] ;
4 -> 5 ;
6 [label="longest_axis_largest_tumor <= 7.405\ngini = 0.1372\nsamples = 16\nvalue = [25, 2]"] ;
5 -> 6 ;
7 [label="largest_tumor_area <= 3.5\ngini = 0.074\nsamples = 15\nvalue = [25, 1]"] ;
6 -> 7 ;
8 [label="largest_tumor_area <= 2.5\ngini = 0.2188\nsamples = 5\nvalue = [7, 1]"] ;
7 -> 8 ;
9 [label="gini = 0.0\nsamples = 1\nvalue = [3, 0]"] ;
8 -> 9 ;
10 [label="extent_skew <= -2.525\ngini = 0.32\nsamples = 4\nvalue = [4, 1]"] ;
8 -> 10 ;
11 [label="gini = 0.0\nsamples = 3\nvalue = [4, 0]"] ;
10 -> 11 ;
12 [label="gini = 0.0\nsamples = 1\nvalue = [0, 1]"] ;
10 -> 12 ;
13 [label="gini = 0.0\nsamples = 10\nvalue = [18, 0]"] ;
7 -> 13 ;
14 [label="gini = 0.0\nsamples = 1\nvalue = [0, 1]"] ;
6 -> 14 ;
15 [label="gini = 0.0\nsamples = 15\nvalue = [21, 0]"] ;
5 -> 15 ;
16 [label="gini = 0.0\nsamples = 1\nvalue = [0, 1]"] ;
4 -> 16 ;
17 [label="gini = 0.0\nsamples = 20\nvalue = [30, 0]"] ;
3 -> 17 ;
18 [label="eccentricity_variance <= 0.12\ngini = 0.3496\nsamples = 21\nvalue = [24, 7]"] ;
2 -> 18 ;
19 [label="longest_axis_largest_tumor <= 6.105\ngini = 0.5\nsamples = 8\nvalue = [6, 6]"] ;
18 -> 19 ;
20 [label="gini = 0.0\nsamples = 3\nvalue = [4, 0]"] ;
19 -> 20 ;
21 [label="mean_area <= 1.1\ngini = 0.375\nsamples = 5\nvalue = [2, 6]"] ;
19 -> 21 ;
22 [label="extent_kurt <= 1.255\ngini = 0.4444\nsamples = 3\nvalue = [2, 1]"] ;
21 -> 22 ;
23 [label="gini = 0.0\nsamples = 1\nvalue = [0, 1]"] ;
22 -> 23 ;
24 [label="gini = 0.0\nsamples = 2\nvalue = [2, 0]"] ;
22 -> 24 ;
25 [label="gini = 0.0\nsamples = 2\nvalue = [0, 5]"] ;
21 -> 25 ;
26 [label="mean_area <= 1.455\ngini = 0.0997\nsamples = 13\nvalue = [18, 1]"] ;
18 -> 26 ;
27 [label="gini = 0.0\nsamples = 11\nvalue = [15, 0]"] ;
26 -> 27 ;
28 [label="avg_prediction <= 233.57\ngini = 0.375\nsamples = 2\nvalue = [3, 1]"] ;
26 -> 28 ;
29 [label="gini = 0.0\nsamples = 1\nvalue = [0, 1]"] ;
28 -> 29 ;
30 [label="gini = 0.0\nsamples = 1\nvalue = [3, 0]"] ;
28 -> 30 ;
31 [label="longest_axis_largest_tumor <= 11.38\ngini = 0.4988\nsamples = 25\nvalue = [21, 19]"] ;
1 -> 31 ;
32 [label="area_skew <= 1.885\ngini = 0.4963\nsamples = 21\nvalue = [16, 19]"] ;
31 -> 32 ;
33 [label="mean_extent <= 0.985\ngini = 0.4995\nsamples = 18\nvalue = [16, 15]"] ;
32 -> 33 ;
34 [label="area_skew <= 0.78\ngini = 0.4234\nsamples = 15\nvalue = [16, 7]"] ;
33 -> 34 ;
35 [label="pixels_gt_90 <= 4.5\ngini = 0.2311\nsamples = 11\nvalue = [13, 2]"] ;
34 -> 35 ;
36 [label="extent_variance <= 0.015\ngini = 0.1653\nsamples = 8\nvalue = [10, 1]"] ;
35 -> 36 ;
37 [label="mean_extent <= 0.975\ngini = 0.4444\nsamples = 2\nvalue = [2, 1]"] ;
36 -> 37 ;
38 [label="gini = 0.0\nsamples = 1\nvalue = [0, 1]"] ;
37 -> 38 ;
39 [label="gini = 0.0\nsamples = 1\nvalue = [2, 0]"] ;
37 -> 39 ;
40 [label="gini = 0.0\nsamples = 6\nvalue = [8, 0]"] ;
36 -> 40 ;
41 [label="longest_axis_largest_tumor <= 6.445\ngini = 0.375\nsamples = 3\nvalue = [3, 1]"] ;
35 -> 41 ;
42 [label="gini = 0.0\nsamples = 1\nvalue = [0, 1]"] ;
41 -> 42 ;
43 [label="gini = 0.0\nsamples = 2\nvalue = [3, 0]"] ;
41 -> 43 ;
44 [label="region_count <= 9.5\ngini = 0.4688\nsamples = 4\nvalue = [3, 5]"] ;
34 -> 44 ;
45 [label="gini = 0.0\nsamples = 3\nvalue = [0, 5]"] ;
44 -> 45 ;
46 [label="gini = 0.0\nsamples = 1\nvalue = [3, 0]"] ;
44 -> 46 ;
47 [label="gini = 0.0\nsamples = 3\nvalue = [0, 8]"] ;
33 -> 47 ;
48 [label="gini = 0.0\nsamples = 3\nvalue = [0, 4]"] ;
32 -> 48 ;
49 [label="gini = 0.0\nsamples = 4\nvalue = [5, 0]"] ;
31 -> 49 ;
50 [label="eccentricity_skew <= 0.34\ngini = 0.0555\nsamples = 35\nvalue = [2, 68]"] ;
0 -> 50 [labeldistance=2.5, labelangle=-45, headlabel="False"] ;
51 [label="region_count <= 81.0\ngini = 0.2449\nsamples = 7\nvalue = [2, 12]"] ;
50 -> 51 ;
52 [label="gini = 0.0\nsamples = 5\nvalue = [0, 11]"] ;
51 -> 52 ;
53 [label="max_perimeter <= 384.66\ngini = 0.4444\nsamples = 2\nvalue = [2, 1]"] ;
51 -> 53 ;
54 [label="gini = 0.0\nsamples = 1\nvalue = [2, 0]"] ;
53 -> 54 ;
55 [label="gini = 0.0\nsamples = 1\nvalue = [0, 1]"] ;
53 -> 55 ;
56 [label="gini = 0.0\nsamples = 28\nvalue = [0, 56]"] ;
50 -> 56 ;
}