digraph Tree {
node [shape=box] ;
0 [label="perimeter_skew <= 0.08\ngini = 0.4781\nsamples = 141\nvalue = [133, 87]"] ;
1 [label="avg_prediction <= 234.235\ngini = 0.2827\nsamples = 87\nvalue = [112, 23]"] ;
0 -> 1 [labeldistance=2.5, labelangle=45, headlabel="True"] ;
2 [label="extent_variance <= 0.035\ngini = 0.1365\nsamples = 61\nvalue = [88, 7]"] ;
1 -> 2 ;
3 [label="area_skew <= 2.155\ngini = 0.1653\nsamples = 47\nvalue = [70, 7]"] ;
2 -> 3 ;
4 [label="mean_eccentricity <= 0.375\ngini = 0.1292\nsamples = 43\nvalue = [67, 5]"] ;
3 -> 4 ;
5 [label="region_count <= 1.5\ngini = 0.1063\nsamples = 42\nvalue = [67, 4]"] ;
4 -> 5 ;
6 [label="largest_tumor_area <= 2.5\ngini = 0.1975\nsamples = 23\nvalue = [32, 4]"] ;
5 -> 6 ;
7 [label="mean_solidity <= 0.5\ngini = 0.1653\nsamples = 21\nvalue = [30, 3]"] ;
6 -> 7 ;
8 [label="gini = 0.1699\nsamples = 20\nvalue = [29, 3]"] ;
7 -> 8 ;
9 [label="gini = 0.0\nsamples = 1\nvalue = [1, 0]"] ;
7 -> 9 ;
10 [label="mean_extent <= 0.945\ngini = 0.4444\nsamples = 2\nvalue = [2, 1]"] ;
6 -> 10 ;
11 [label="gini = 0.0\nsamples = 1\nvalue = [0, 1]"] ;
10 -> 11 ;
12 [label="gini = 0.0\nsamples = 1\nvalue = [2, 0]"] ;
10 -> 12 ;
13 [label="gini = 0.0\nsamples = 19\nvalue = [35, 0]"] ;
5 -> 13 ;
14 [label="gini = 0.0\nsamples = 1\nvalue = [0, 1]"] ;
4 -> 14 ;
15 [label="extent_skew <= -2.66\ngini = 0.48\nsamples = 4\nvalue = [3, 2]"] ;
3 -> 15 ;
16 [label="gini = 0.0\nsamples = 1\nvalue = [0, 2]"] ;
15 -> 16 ;
17 [label="gini = 0.0\nsamples = 3\nvalue = [3, 0]"] ;
15 -> 17 ;
18 [label="gini = 0.0\nsamples = 14\nvalue = [18, 0]"] ;
2 -> 18 ;
19 [label="max_eccentricity <= 0.5\ngini = 0.48\nsamples = 26\nvalue = [24, 16]"] ;
1 -> 19 ;
20 [label="largest_tumor_area <= 3.5\ngini = 0.3995\nsamples = 18\nvalue = [21, 8]"] ;
19 -> 20 ;
21 [label="longest_axis_largest_tumor <= 2.57\ngini = 0.4753\nsamples = 9\nvalue = [11, 7]"] ;
20 -> 21 ;
22 [label="extent_variance <= 0.005\ngini = 0.4959\nsamples = 4\nvalue = [5, 6]"] ;
21 -> 22 ;
23 [label="mean_extent <= 0.995\ngini = 0.4444\nsamples = 3\nvalue = [3, 6]"] ;
22 -> 23 ;
24 [label="gini = 0.0\nsamples = 2\nvalue = [0, 6]"] ;
23 -> 24 ;
25 [label="gini = 0.0\nsamples = 1\nvalue = [3, 0]"] ;
23 -> 25 ;
26 [label="gini = 0.0\nsamples = 1\nvalue = [2, 0]"] ;
22 -> 26 ;
27 [label="avg_prediction <= 235.5\ngini = 0.2449\nsamples = 5\nvalue = [6, 1]"] ;
21 -> 27 ;
28 [label="extent_kurt <= 7.77\ngini = 0.5\nsamples = 2\nvalue = [1, 1]"] ;
27 -> 28 ;
29 [label="gini = 0.0\nsamples = 1\nvalue = [0, 1]"] ;
28 -> 29 ;
30 [label="gini = 0.0\nsamples = 1\nvalue = [1, 0]"] ;
28 -> 30 ;
31 [label="gini = 0.0\nsamples = 3\nvalue = [5, 0]"] ;
27 -> 31 ;
32 [label="avg_prediction <= 235.365\ngini = 0.1653\nsamples = 9\nvalue = [10, 1]"] ;
20 -> 32 ;
33 [label="gini = 0.0\nsamples = 5\nvalue = [6, 0]"] ;
32 -> 33 ;
34 [label="extent_variance <= 0.025\ngini = 0.32\nsamples = 4\nvalue = [4, 1]"] ;
32 -> 34 ;
35 [label="gini = 0.0\nsamples = 1\nvalue = [1, 0]"] ;
34 -> 35 ;
36 [label="extent_kurt <= 4.875\ngini = 0.375\nsamples = 3\nvalue = [3, 1]"] ;
34 -> 36 ;
37 [label="longest_axis_largest_tumor <= 5.145\ngini = 0.5\nsamples = 2\nvalue = [1, 1]"] ;
36 -> 37 ;
38 [label="gini = 0.0\nsamples = 1\nvalue = [1, 0]"] ;
37 -> 38 ;
39 [label="gini = 0.0\nsamples = 1\nvalue = [0, 1]"] ;
37 -> 39 ;
40 [label="gini = 0.0\nsamples = 1\nvalue = [2, 0]"] ;
36 -> 40 ;
41 [label="longest_axis_largest_tumor <= 8.305\ngini = 0.3967\nsamples = 8\nvalue = [3, 8]"] ;
19 -> 41 ;
42 [label="gini = 0.0\nsamples = 3\nvalue = [0, 4]"] ;
41 -> 42 ;
43 [label="extent_kurt <= 0.275\ngini = 0.4898\nsamples = 5\nvalue = [3, 4]"] ;
41 -> 43 ;
44 [label="gini = 0.0\nsamples = 1\nvalue = [2, 0]"] ;
43 -> 44 ;
45 [label="avg_prediction <= 234.475\ngini = 0.32\nsamples = 4\nvalue = [1, 4]"] ;
43 -> 45 ;
46 [label="gini = 0.0\nsamples = 1\nvalue = [0, 2]"] ;
45 -> 46 ;
47 [label="mean_eccentricity <= 0.225\ngini = 0.4444\nsamples = 3\nvalue = [1, 2]"] ;
45 -> 47 ;
48 [label="gini = 0.0\nsamples = 1\nvalue = [1, 0]"] ;
47 -> 48 ;
49 [label="gini = 0.0\nsamples = 2\nvalue = [0, 2]"] ;
47 -> 49 ;
50 [label="perimeter_skew <= 3.12\ngini = 0.372\nsamples = 54\nvalue = [21, 64]"] ;
0 -> 50 [labeldistance=2.5, labelangle=-45, headlabel="False"] ;
51 [label="gini = 0.0\nsamples = 22\nvalue = [0, 37]"] ;
50 -> 51 ;
52 [label="max_area <= 12.0\ngini = 0.4922\nsamples = 32\nvalue = [21, 27]"] ;
50 -> 52 ;
53 [label="eccentricity_kurt <= -0.645\ngini = 0.095\nsamples = 13\nvalue = [19, 1]"] ;
52 -> 53 ;
54 [label="eccentricity_kurt <= -1.11\ngini = 0.4444\nsamples = 2\nvalue = [2, 1]"] ;
53 -> 54 ;
55 [label="gini = 0.0\nsamples = 1\nvalue = [2, 0]"] ;
54 -> 55 ;
56 [label="gini = 0.0\nsamples = 1\nvalue = [0, 1]"] ;
54 -> 56 ;
57 [label="gini = 0.0\nsamples = 11\nvalue = [17, 0]"] ;
53 -> 57 ;
58 [label="max_perimeter <= 64.87\ngini = 0.1327\nsamples = 19\nvalue = [2, 26]"] ;
52 -> 58 ;
59 [label="solidity_skew <= -2.18\ngini = 0.375\nsamples = 5\nvalue = [2, 6]"] ;
58 -> 59 ;
60 [label="gini = 0.0\nsamples = 4\nvalue = [0, 6]"] ;
59 -> 60 ;
61 [label="gini = 0.0\nsamples = 1\nvalue = [2, 0]"] ;
59 -> 61 ;
62 [label="gini = 0.0\nsamples = 14\nvalue = [0, 20]"] ;
58 -> 62 ;
}