digraph Tree {
node [shape=box] ;
0 [label="solidity_variance <= 0.005\ngini = 0.4866\nsamples = 138\nvalue = [128, 92]"] ;
1 [label="max_perimeter <= 9.12\ngini = 0.3472\nsamples = 103\nvalue = [125, 36]"] ;
0 -> 1 [labeldistance=2.5, labelangle=45, headlabel="True"] ;
2 [label="perimeter_variance <= 1.21\ngini = 0.2922\nsamples = 96\nvalue = [125, 27]"] ;
1 -> 2 ;
3 [label="avg_prediction <= 234.46\ngini = 0.2625\nsamples = 93\nvalue = [125, 23]"] ;
2 -> 3 ;
4 [label="area_kurt <= 4.64\ngini = 0.1898\nsamples = 70\nvalue = [101, 12]"] ;
3 -> 4 ;
5 [label="eccentricity_kurt <= 2.655\ngini = 0.2248\nsamples = 58\nvalue = [81, 12]"] ;
4 -> 5 ;
6 [label="mean_perimeter <= 0.32\ngini = 0.2125\nsamples = 56\nvalue = [80, 11]"] ;
5 -> 6 ;
7 [label="largest_tumor_area <= 9.5\ngini = 0.1975\nsamples = 55\nvalue = [80, 10]"] ;
6 -> 7 ;
8 [label="pixels_gt_90 <= 10.0\ngini = 0.2478\nsamples = 43\nvalue = [59, 10]"] ;
7 -> 8 ;
9 [label="region_count <= 1.5\ngini = 0.1723\nsamples = 40\nvalue = [57, 6]"] ;
8 -> 9 ;
10 [label="extent_skew <= -2.525\ngini = 0.2907\nsamples = 23\nvalue = [28, 6]"] ;
9 -> 10 ;
11 [label="gini = 0.0\nsamples = 4\nvalue = [6, 0]"] ;
10 -> 11 ;
12 [label="extent_variance <= 0.01\ngini = 0.3367\nsamples = 19\nvalue = [22, 6]"] ;
10 -> 12 ;
13 [label="largest_tumor_area <= 1.0\ngini = 0.2604\nsamples = 18\nvalue = [22, 4]"] ;
12 -> 13 ;
14 [label="gini = 0.2688\nsamples = 17\nvalue = [21, 4]"] ;
13 -> 14 ;
15 [label="gini = 0.0\nsamples = 1\nvalue = [1, 0]"] ;
13 -> 15 ;
16 [label="gini = 0.0\nsamples = 1\nvalue = [0, 2]"] ;
12 -> 16 ;
17 [label="gini = 0.0\nsamples = 17\nvalue = [29, 0]"] ;
9 -> 17 ;
18 [label="longest_axis_largest_tumor <= 6.69\ngini = 0.4444\nsamples = 3\nvalue = [2, 4]"] ;
8 -> 18 ;
19 [label="gini = 0.0\nsamples = 1\nvalue = [2, 0]"] ;
18 -> 19 ;
20 [label="gini = 0.0\nsamples = 2\nvalue = [0, 4]"] ;
18 -> 20 ;
21 [label="gini = 0.0\nsamples = 12\nvalue = [21, 0]"] ;
7 -> 21 ;
22 [label="gini = 0.0\nsamples = 1\nvalue = [0, 1]"] ;
6 -> 22 ;
23 [label="mean_extent <= 0.93\ngini = 0.5\nsamples = 2\nvalue = [1, 1]"] ;
5 -> 23 ;
24 [label="gini = 0.0\nsamples = 1\nvalue = [1, 0]"] ;
23 -> 24 ;
25 [label="gini = 0.0\nsamples = 1\nvalue = [0, 1]"] ;
23 -> 25 ;
26 [label="gini = 0.0\nsamples = 12\nvalue = [20, 0]"] ;
4 -> 26 ;
27 [label="max_area <= 1.5\ngini = 0.431\nsamples = 23\nvalue = [24, 11]"] ;
3 -> 27 ;
28 [label="avg_prediction <= 235.3\ngini = 0.2975\nsamples = 15\nvalue = [18, 4]"] ;
27 -> 28 ;
29 [label="gini = 0.0\nsamples = 7\nvalue = [10, 0]"] ;
28 -> 29 ;
30 [label="largest_tumor_area <= 9.0\ngini = 0.4444\nsamples = 8\nvalue = [8, 4]"] ;
28 -> 30 ;
31 [label="gini = 0.0\nsamples = 7\nvalue = [8, 0]"] ;
30 -> 31 ;
32 [label="gini = 0.0\nsamples = 1\nvalue = [0, 4]"] ;
30 -> 32 ;
33 [label="region_count <= 7.0\ngini = 0.497\nsamples = 8\nvalue = [6, 7]"] ;
27 -> 33 ;
34 [label="gini = 0.0\nsamples = 3\nvalue = [0, 5]"] ;
33 -> 34 ;
35 [label="area_skew <= 3.235\ngini = 0.375\nsamples = 5\nvalue = [6, 2]"] ;
33 -> 35 ;
36 [label="gini = 0.0\nsamples = 4\nvalue = [6, 0]"] ;
35 -> 36 ;
37 [label="gini = 0.0\nsamples = 1\nvalue = [0, 2]"] ;
35 -> 37 ;
38 [label="gini = 0.0\nsamples = 3\nvalue = [0, 4]"] ;
2 -> 38 ;
39 [label="gini = 0.0\nsamples = 7\nvalue = [0, 9]"] ;
1 -> 39 ;
40 [label="mean_area <= 4.825\ngini = 0.0965\nsamples = 35\nvalue = [3, 56]"] ;
0 -> 40 [labeldistance=2.5, labelangle=-45, headlabel="False"] ;
41 [label="area_kurt <= 19.775\ngini = 0.375\nsamples = 7\nvalue = [3, 9]"] ;
40 -> 41 ;
42 [label="gini = 0.0\nsamples = 6\nvalue = [0, 9]"] ;
41 -> 42 ;
43 [label="gini = 0.0\nsamples = 1\nvalue = [3, 0]"] ;
41 -> 43 ;
44 [label="gini = 0.0\nsamples = 28\nvalue = [0, 47]"] ;
40 -> 44 ;
}