digraph Tree {
node [shape=box] ;
0 [label="max_area <= 11.5\ngini = 0.4652\nsamples = 139\nvalue = [139, 81]"] ;
1 [label="area_kurt <= 14.025\ngini = 0.2584\nsamples = 103\nvalue = [139, 25]"] ;
0 -> 1 [labeldistance=2.5, labelangle=45, headlabel="True"] ;
2 [label="avg_prediction <= 233.675\ngini = 0.2273\nsamples = 97\nvalue = [133, 20]"] ;
1 -> 2 ;
3 [label="eccentricity_variance <= 0.22\ngini = 0.1365\nsamples = 62\nvalue = [88, 7]"] ;
2 -> 3 ;
4 [label="largest_tumor_area <= 9.5\ngini = 0.1195\nsamples = 61\nvalue = [88, 6]"] ;
3 -> 4 ;
5 [label="area_kurt <= -1.835\ngini = 0.1723\nsamples = 44\nvalue = [57, 6]"] ;
4 -> 5 ;
6 [label="mean_extent <= 0.905\ngini = 0.2378\nsamples = 21\nvalue = [25, 4]"] ;
5 -> 6 ;
7 [label="gini = 0.0\nsamples = 1\nvalue = [0, 1]"] ;
6 -> 7 ;
8 [label="longest_axis_largest_tumor <= 7.435\ngini = 0.1913\nsamples = 20\nvalue = [25, 3]"] ;
6 -> 8 ;
9 [label="largest_tumor_area <= 3.5\ngini = 0.0832\nsamples = 16\nvalue = [22, 1]"] ;
8 -> 9 ;
10 [label="extent_kurt <= 4.495\ngini = 0.2778\nsamples = 4\nvalue = [5, 1]"] ;
9 -> 10 ;
11 [label="gini = 0.0\nsamples = 1\nvalue = [0, 1]"] ;
10 -> 11 ;
12 [label="gini = 0.0\nsamples = 3\nvalue = [5, 0]"] ;
10 -> 12 ;
13 [label="gini = 0.0\nsamples = 12\nvalue = [17, 0]"] ;
9 -> 13 ;
14 [label="mean_extent <= 0.93\ngini = 0.48\nsamples = 4\nvalue = [3, 2]"] ;
8 -> 14 ;
15 [label="gini = 0.0\nsamples = 3\nvalue = [3, 0]"] ;
14 -> 15 ;
16 [label="gini = 0.0\nsamples = 1\nvalue = [0, 2]"] ;
14 -> 16 ;
17 [label="mean_extent <= 0.47\ngini = 0.1107\nsamples = 23\nvalue = [32, 2]"] ;
5 -> 17 ;
18 [label="gini = 0.1139\nsamples = 22\nvalue = [31, 2]"] ;
17 -> 18 ;
19 [label="gini = 0.0\nsamples = 1\nvalue = [1, 0]"] ;
17 -> 19 ;
20 [label="gini = 0.0\nsamples = 17\nvalue = [31, 0]"] ;
4 -> 20 ;
21 [label="gini = 0.0\nsamples = 1\nvalue = [0, 1]"] ;
3 -> 21 ;
22 [label="largest_tumor_area <= 3.5\ngini = 0.3478\nsamples = 35\nvalue = [45, 13]"] ;
2 -> 22 ;
23 [label="extent_kurt <= 15.3\ngini = 0.4959\nsamples = 6\nvalue = [5, 6]"] ;
22 -> 23 ;
24 [label="region_count <= 3.5\ngini = 0.2449\nsamples = 5\nvalue = [1, 6]"] ;
23 -> 24 ;
25 [label="extent_skew <= -3.46\ngini = 0.32\nsamples = 4\nvalue = [1, 4]"] ;
24 -> 25 ;
26 [label="gini = 0.0\nsamples = 2\nvalue = [0, 2]"] ;
25 -> 26 ;
27 [label="extent_skew <= -1.655\ngini = 0.4444\nsamples = 2\nvalue = [1, 2]"] ;
25 -> 27 ;
28 [label="gini = 0.0\nsamples = 1\nvalue = [1, 0]"] ;
27 -> 28 ;
29 [label="gini = 0.0\nsamples = 1\nvalue = [0, 2]"] ;
27 -> 29 ;
30 [label="gini = 0.0\nsamples = 1\nvalue = [0, 2]"] ;
24 -> 30 ;
31 [label="gini = 0.0\nsamples = 1\nvalue = [4, 0]"] ;
23 -> 31 ;
32 [label="area_skew <= 1.72\ngini = 0.2535\nsamples = 29\nvalue = [40, 7]"] ;
22 -> 32 ;
33 [label="area_variance <= 0.165\ngini = 0.0605\nsamples = 20\nvalue = [31, 1]"] ;
32 -> 33 ;
34 [label="gini = 0.0\nsamples = 18\nvalue = [30, 0]"] ;
33 -> 34 ;
35 [label="largest_tumor_area <= 14.5\ngini = 0.5\nsamples = 2\nvalue = [1, 1]"] ;
33 -> 35 ;
36 [label="gini = 0.0\nsamples = 1\nvalue = [1, 0]"] ;
35 -> 36 ;
37 [label="gini = 0.0\nsamples = 1\nvalue = [0, 1]"] ;
35 -> 37 ;
38 [label="pixels_gt_90 <= 39.0\ngini = 0.48\nsamples = 9\nvalue = [9, 6]"] ;
32 -> 38 ;
39 [label="longest_axis_largest_tumor <= 5.645\ngini = 0.4444\nsamples = 5\nvalue = [3, 6]"] ;
38 -> 39 ;
40 [label="gini = 0.0\nsamples = 1\nvalue = [2, 0]"] ;
39 -> 40 ;
41 [label="perimeter_skew <= 2.755\ngini = 0.2449\nsamples = 4\nvalue = [1, 6]"] ;
39 -> 41 ;
42 [label="gini = 0.0\nsamples = 3\nvalue = [0, 6]"] ;
41 -> 42 ;
43 [label="gini = 0.0\nsamples = 1\nvalue = [1, 0]"] ;
41 -> 43 ;
44 [label="gini = 0.0\nsamples = 4\nvalue = [6, 0]"] ;
38 -> 44 ;
45 [label="extent_kurt <= 1.695\ngini = 0.4959\nsamples = 6\nvalue = [6, 5]"] ;
1 -> 45 ;
46 [label="gini = 0.0\nsamples = 2\nvalue = [0, 5]"] ;
45 -> 46 ;
47 [label="gini = 0.0\nsamples = 4\nvalue = [6, 0]"] ;
45 -> 47 ;
48 [label="gini = 0.0\nsamples = 36\nvalue = [0, 56]"] ;
0 -> 48 [labeldistance=2.5, labelangle=-45, headlabel="False"] ;
}